svm_type nu_svr
kernel_type rbf
gamma 1.0
nr_class 2
total_sv 974
rho -0.47404619048405605
SV
8.279371141276712 0:-1.3 1:-0.0 2:0.6788517472059495 
0.43739570220218127 0:-1.2839948427736791 1:-0.20336480455230013 2:0.6788517472059495 
0.01542748951305839 0:-1.2363734711836996 1:-0.4017220926874316 2:0.6788517472059495 
0.0016302288141929466 0:-1.158308481444878 1:-0.5901876496614108 2:0.6788517472059495 
-0.04408243975662174 0:-0.20336480455230022 1:-1.2839948427736791 2:0.6788517472059495 
-2.823892672410011E-4 0:-7.960204194457795E-17 1:-1.3 2:0.6788517472059495 
-0.05631417859997612 0:0.20336480455230005 1:-1.2839948427736791 2:0.6788517472059495 
0.021227897223383252 0:1.2363734711836996 1:-0.40172209268743175 2:0.6788517472059495 
0.3509587114629653 0:1.283994842773679 1:-0.20336480455230024 2:0.6788517472059495 
10.573851539635967 0:1.3 1:-1.592040838891559E-16 2:0.6788517472059495 
15.659270593914783 0:-1.274 1:-0.0 2:0.9269348873507335 
0.030448507259166036 0:-1.2583149459182055 1:-0.1992975084612541 2:0.9269348873507335 
0.2055930436589648 0:-1.2116460017600255 1:-0.393687650833683 2:0.9269348873507335 
0.4208042292304839 0:-1.1351423118159807 1:-0.5783838966681826 2:0.9269348873507335 
0.8908236824187696 0:-1.0306876508336829 1:-0.7488384114206107 2:0.9269348873507335 
1.3832682980875006 0:-0.9008540392316616 1:-0.9008540392316614 2:0.9269348873507335 
1.020401795079195 0:-0.7488384114206107 1:-1.0306876508336829 2:0.9269348873507335 
0.8063722504279411 0:-0.5783838966681827 1:-1.1351423118159807 2:0.9269348873507335 
0.732199486642358 0:-0.39368765083368307 1:-1.2116460017600255 2:0.9269348873507335 
0.9038891453230207 0:-0.19929750846125419 1:-1.2583149459182055 2:0.9269348873507335 
1.5444928796006963 0:-7.80100011056864E-17 1:-1.274 2:0.9269348873507335 
1.2052925673051789 0:0.19929750846125405 1:-1.2583149459182055 2:0.9269348873507335 
0.6281264144124918 0:0.3936876508336829 1:-1.2116460017600257 2:0.9269348873507335 
0.8158887346309882 0:0.5783838966681826 1:-1.1351423118159807 2:0.9269348873507335 
1.1109938360765454 0:0.7488384114206106 1:-1.0306876508336829 2:0.9269348873507335 
1.2189127651410558 0:0.9008540392316614 1:-0.9008540392316616 2:0.9269348873507335 
0.785004798901852 0:1.0306876508336829 1:-0.7488384114206109 2:0.9269348873507335 
0.6198112614942772 0:1.1351423118159807 1:-0.5783838966681827 2:0.9269348873507335 
0.2581991148352216 0:1.2116460017600255 1:-0.3936876508336831 2:0.9269348873507335 
0.040704407064254156 0:1.2583149459182053 1:-0.19929750846125427 2:0.9269348873507335 
16.234193522300927 0:1.274 1:-1.560200022113728E-16 2:0.9269348873507335 
-4.571923167003661 0:-1.248 1:-0.0 2:0.8177933377580234 
-0.5076719974226052 0:-1.2326350490627318 1:-0.19523021237020813 2:0.8177933377580234 
-0.22802354302839944 0:-1.1869185323363516 1:-0.3856532089799343 2:0.8177933377580234 
-0.33338510647176633 0:-1.111976142187083 1:-0.5665801436749544 2:0.8177933377580234 
-0.7479135538277006 0:-1.0096532089799344 1:-0.7335559948610065 2:0.8177933377580234 
-1.6649598194218385 0:-0.8824692629208114 1:-0.8824692629208112 2:0.8177933377580234 
-1.32678954301106 0:-0.7335559948610065 1:-1.0096532089799344 2:0.8177933377580234 
-0.7164931165222725 0:-0.5665801436749545 1:-1.111976142187083 2:0.8177933377580234 
-0.5626226459363153 0:-0.3856532089799344 1:-1.1869185323363516 2:0.8177933377580234 
-0.9650198922557678 0:-0.19523021237020818 1:-1.2326350490627318 2:0.8177933377580234 
-1.6105620526376327 0:-7.641796026679484E-17 1:-1.248 2:0.8177933377580234 
-1.1302748577474375 0:0.19523021237020804 1:-1.2326350490627318 2:0.8177933377580234 
-0.5805433736874335 0:0.38565320897993427 1:-1.1869185323363518 2:0.8177933377580234 
-0.8166901514162959 0:0.5665801436749544 1:-1.111976142187083 2:0.8177933377580234 
-1.331947984664481 0:0.7335559948610063 1:-1.0096532089799344 2:0.8177933377580234 
-1.4522819148660773 0:0.8824692629208112 1:-0.8824692629208114 2:0.8177933377580234 
-0.8008833025260316 0:1.0096532089799342 1:-0.7335559948610066 2:0.8177933377580234 
-0.40334496142115484 0:1.111976142187083 1:-0.5665801436749545 2:0.8177933377580234 
-0.23128396820175112 0:1.1869185323363516 1:-0.3856532089799345 2:0.8177933377580234 
-0.5671496813514096 0:1.2326350490627316 1:-0.19523021237020827 2:0.8177933377580234 
-3.665674873394053 0:1.248 1:-1.5283592053358969E-16 2:0.8177933377580234 
-2.638266919992688 0:-1.222 1:-0.0 2:0.39006228606282567 
-0.3673531639265235 0:-1.2069551522072584 1:-0.19116291627916213 2:0.39006228606282567 
-0.002864763490251221 0:-0.5547763906817262 1:-1.0888099725581855 2:0.39006228606282567 
-0.002553218632755261 0:0.5547763906817261 1:-1.0888099725581855 2:0.39006228606282567 
-0.001037135577320214 0:0.718273578301402 1:-0.9886187671261858 2:0.39006228606282567 
-0.010442082036206557 0:1.1621910629126775 1:-0.37761876712618586 2:0.39006228606282567 
-0.6427845467094073 0:1.2069551522072584 1:-0.19116291627916226 2:0.39006228606282567 
-2.618560565615283 0:1.222 1:-1.4965183885580655E-16 2:0.39006228606282567 
13.87231741238746 0:-1.196 1:-0.0 2:0.14223375521658088 
0.12668975311783015 0:-1.1812752553517847 1:-0.1870956201881161 2:0.14223375521658088 
0.0457720796969312 0:-1.1374635934890036 1:-0.36958432527243706 2:0.14223375521658088 
0.12809764612242702 0:-1.065643802929288 1:-0.5429726376884979 2:0.14223375521658088 
0.565265758470062 0:-0.9675843252724372 1:-0.7029911617417979 2:0.14223375521658088 
1.236474236052814 0:-0.8456997102991108 1:-0.8456997102991107 2:0.14223375521658088 
1.3992940919874854 0:-0.7029911617417979 1:-0.9675843252724372 2:0.14223375521658088 
0.648296555908118 0:-0.542972637688498 1:-1.065643802929288 2:0.14223375521658088 
0.4511612096342503 0:-0.3695843252724371 1:-1.1374635934890036 2:0.14223375521658088 
0.8687403918281404 0:-0.18709562018811618 1:-1.1812752553517847 2:0.14223375521658088 
1.6354546116756694 0:-7.323387858901173E-17 1:-1.196 2:0.14223375521658088 
0.886097259504524 0:0.18709562018811607 1:-1.1812752553517847 2:0.14223375521658088 
0.47692642705649746 0:0.369584325272437 1:-1.1374635934890038 2:0.14223375521658088 
0.731905487090728 0:0.5429726376884979 1:-1.065643802929288 2:0.14223375521658088 
1.3194794399650647 0:0.7029911617417978 1:-0.9675843252724372 2:0.14223375521658088 
1.2190391472003483 0:0.8456997102991107 1:-0.8456997102991108 2:0.14223375521658088 
0.5682734216289305 0:0.967584325272437 1:-0.7029911617417981 2:0.14223375521658088 
0.15079698031931343 0:1.065643802929288 1:-0.542972637688498 2:0.14223375521658088 
0.019706123284123578 0:1.1374635934890036 1:-0.36958432527243723 2:0.14223375521658088 
0.14858346272608003 0:1.1812752553517847 1:-0.18709562018811624 2:0.14223375521658088 
13.051954551761597 0:1.196 1:-1.4646775717802346E-16 2:0.14223375521658088 
-5.123392026876843 0:-1.17 1:-0.0 2:0.009768085405481458 
-0.01208816419091363 0:-1.1555953584963112 1:-0.18302832409707012 2:0.009768085405481458 
-0.1482074614063862 0:-1.1127361240653297 1:-0.3615498834186885 2:0.009768085405481458 
-0.4799831538697106 0:-1.0424776333003904 1:-0.5311688846952697 2:0.009768085405481458 
-0.9621718254030895 0:-0.9465498834186885 1:-0.6877087451821936 2:0.009768085405481458 
-1.2905097789093816 0:-0.8273149339882606 1:-0.8273149339882605 2:0.009768085405481458 
-1.5015923162489742 0:-0.6877087451821936 1:-0.9465498834186885 2:0.009768085405481458 
-1.3356904690075027 0:-0.5311688846952699 1:-1.0424776333003904 2:0.009768085405481458 
-0.7680083214441851 0:-0.36154988341868854 1:-1.1127361240653297 2:0.009768085405481458 
-1.2406545307280368 0:-0.18302832409707018 1:-1.1555953584963112 2:0.009768085405481458 
-1.997173878364947 0:-7.164183775012016E-17 1:-1.17 2:0.009768085405481458 
-1.247017279782284 0:0.18302832409707004 1:-1.1555953584963112 2:0.009768085405481458 
-0.8526474884262143 0:0.3615498834186884 1:-1.11273612406533 2:0.009768085405481458 
-1.2779742933091143 0:0.5311688846952697 1:-1.0424776333003904 2:0.009768085405481458 
-1.3731059205383929 0:0.6877087451821935 1:-0.9465498834186885 2:0.009768085405481458 
-1.292721157259436 0:0.8273149339882605 1:-0.8273149339882606 2:0.009768085405481458 
-1.0103173971618418 0:0.9465498834186884 1:-0.6877087451821937 2:0.009768085405481458 
-0.4431165409594229 0:1.0424776333003904 1:-0.5311688846952699 2:0.009768085405481458 
-0.10386579411223806 0:1.1127361240653297 1:-0.3615498834186886 2:0.009768085405481458 
-7.59513552290143 0:1.17 1:-1.4328367550024033E-16 2:0.009768085405481458 
-1.0150725437507617 0:-1.1440000000000001 1:-0.0 2:0.002497820929310585 
0.315590672698022 0:1.1440000000000001 1:-1.400995938224572E-16 2:0.002497820929310585 
45.09885818395126 0:-1.118 1:-0.0 2:0.02925423983064266 
0.14079042448892665 0:-1.104235564785364 1:-0.17489373191497815 2:0.02925423983064266 
0.21779039457328508 0:1.1042355647853639 1:-0.17489373191497826 2:0.02925423983064266 
49.09228206433521 0:1.118 1:-1.369155121446741E-16 2:0.02925423983064266 
33.16616821944601 0:-1.092 1:-0.0 2:0.028843021244113035 
0.043012444210631884 0:-1.0785556679298907 1:-0.17082643582393212 2:0.028843021244113035 
0.012419818566925755 0:-1.0385537157943077 1:-0.33744655785744254 2:0.028843021244113035 
0.0024444377664991634 0:-0.9729791244136978 1:-0.4957576257155851 2:0.028843021244113035 
9.089191131295138E-4 0:-0.49575762571558524 1:-0.9729791244136977 2:0.028843021244113035 
0.0010828931018380672 0:-0.3374465578574426 1:-1.0385537157943077 2:0.028843021244113035 
0.003691710274409843 0:0.4957576257155851 1:-0.9729791244136978 2:0.028843021244113035 
9.245066984107098E-4 0:0.6418614955033806 1:-0.8834465578574427 2:0.028843021244113035 
0.023379614961001494 0:1.0385537157943077 1:-0.3374465578574427 2:0.028843021244113035 
0.05485255665452371 0:1.0785556679298904 1:-0.17082643582393223 2:0.028843021244113035 
32.7147092752561 0:1.092 1:-1.3373143046689097E-16 2:0.028843021244113035 
-53.12367631679791 0:-1.066 1:-0.0 2:0.010225126595598509 
-58.47818945910342 0:1.066 1:-1.3054734878910788E-16 2:0.010225126595598509 
61.54341741895858 0:-1.0399999999999998 1:-0.0 2:8.272088570610064E-4 
0.264537052071006 0:-1.027195874218943 1:-0.16269184364184008 2:8.272088570610064E-4 
0.012650931845257674 0:-0.9890987769469596 1:-0.3213776741499453 2:8.272088570610064E-4 
0.0029315619654965985 0:-0.9266467851559026 1:-0.47215011972912857 2:8.272088570610064E-4 
0.03649276178356331 0:-0.7353910524340095 1:-0.7353910524340094 2:8.272088570610064E-4 
0.01441658191994577 0:-0.611296662384172 1:-0.8413776741499454 2:8.272088570610064E-4 
0.006715453451022313 0:-0.4721501197291287 1:-0.9266467851559025 2:8.272088570610064E-4 
9.958368292615205E-4 0:-0.32137767414994534 1:-0.9890987769469596 2:8.272088570610064E-4 
0.0019741544454774385 0:0.3213776741499452 1:-0.9890987769469598 2:8.272088570610064E-4 
0.006468960174387917 0:0.47215011972912857 1:-0.9266467851559026 2:8.272088570610064E-4 
0.013909794906410866 0:0.6112966623841719 1:-0.8413776741499454 2:8.272088570610064E-4 
0.048050123881722584 0:0.7353910524340094 1:-0.7353910524340095 2:8.272088570610064E-4 
0.0012172822710425635 0:0.8413776741499452 1:-0.6112966623841721 2:8.272088570610064E-4 
0.00408938887538568 0:0.9266467851559025 1:-0.4721501197291287 2:8.272088570610064E-4 
0.007800648487886974 0:0.9890987769469596 1:-0.32137767414994534 2:8.272088570610064E-4 
0.21887481043533796 0:1.027195874218943 1:-0.16269184364184022 2:8.272088570610064E-4 
58.737272213704486 0:1.0399999999999998 1:-1.2736326711132472E-16 2:8.272088570610064E-4 
4.211083269952198 0:-1.014 1:-0.0 2:0.028399754355570156 
0.03301734494864661 0:-0.9643713075232856 1:-0.31334323229619665 2:0.028399754355570156 
0.11678197861870387 0:-0.903480615527005 1:-0.46034636673590035 2:0.028399754355570156 
0.1077041933420162 0:-0.8203432322961967 1:-0.5960142458245677 2:0.028399754355570156 
0.33186739185488534 0:-0.7170062761231593 1:-0.7170062761231591 2:0.028399754355570156 
0.7684581125831755 0:-0.5960142458245677 1:-0.8203432322961967 2:0.028399754355570156 
0.5547618254870201 0:-0.46034636673590046 1:-0.9034806155270049 2:0.028399754355570156 
0.5075272185832631 0:-0.3133432322961967 1:-0.9643713075232856 2:0.028399754355570156 
0.7070634214948655 0:-0.15862454755079416 1:-1.0015159773634696 2:0.028399754355570156 
1.1222660348826707 0:-6.20895927167708E-17 1:-1.014 2:0.028399754355570156 
0.7559015713912487 0:0.15862454755079405 1:-1.0015159773634696 2:0.028399754355570156 
0.45719152992872125 0:0.3133432322961966 1:-0.9643713075232857 2:0.028399754355570156 
0.4354062230399478 0:0.46034636673590035 1:-0.903480615527005 2:0.028399754355570156 
0.5865171500864079 0:0.5960142458245676 1:-0.8203432322961967 2:0.028399754355570156 
0.3509448798029666 0:0.7170062761231591 1:-0.7170062761231593 2:0.028399754355570156 
0.13615095362953866 0:0.8203432322961965 1:-0.5960142458245679 2:0.028399754355570156 
0.12234113117882828 0:0.9034806155270049 1:-0.46034636673590046 2:0.028399754355570156 
0.06647657157509457 0:0.9643713075232856 1:-0.31334323229619676 2:0.028399754355570156 
4.090437114281343 0:1.014 1:-1.241791854335416E-16 2:0.028399754355570156 
0.5444460614030362 0:-0.988 1:-0.0 2:0.21240385805036105 
-0.19196657412538798 0:-0.9758360805079961 1:-0.15455725145974808 2:0.21240385805036105 
-0.33734302630598734 0:0.975836080507996 1:-0.1545572514597482 2:0.21240385805036105 
0.3992731901551565 0:0.988 1:-1.209951037557585E-16 2:0.21240385805036105 
-1.6370408708694697 0:-0.962 1:-0.0 2:0.46245164628309593 
-0.2726104923690542 0:-0.9501561836525225 1:-0.15048995536870208 2:0.46245164628309593 
-0.07616749349742236 0:-0.9149163686759376 1:-0.2972743485886994 2:0.46245164628309593 
-0.022791230888870473 0:-0.8571482762692099 1:-0.43673886074944396 2:0.46245164628309593 
-0.004804133961840762 0:-0.7782743485886994 1:-0.5654494127053591 2:0.46245164628309593 
-0.008446713103523962 0:-0.6802367235014587 1:-0.6802367235014586 2:0.46245164628309593 
-0.13229323610808308 0:-0.5654494127053591 1:-0.7782743485886994 2:0.46245164628309593 
-0.35621160118815 0:-0.43673886074944407 1:-0.8571482762692099 2:0.46245164628309593 
-0.41185423118919573 0:-0.29727434858869944 1:-0.9149163686759376 2:0.46245164628309593 
-0.5054712799687877 0:-0.15048995536870213 1:-0.9501561836525225 2:0.46245164628309593 
-0.6561071393337699 0:-5.890551103898768E-17 1:-0.962 2:0.46245164628309593 
-0.4734868647769588 0:0.15048995536870202 1:-0.9501561836525225 2:0.46245164628309593 
-0.4968373853435679 0:0.29727434858869933 1:-0.9149163686759377 2:0.46245164628309593 
-0.4390183954432416 0:0.43673886074944396 1:-0.8571482762692099 2:0.46245164628309593 
-0.1589327233745763 0:0.565449412705359 1:-0.7782743485886994 2:0.46245164628309593 
-0.012235339484064411 0:0.6802367235014586 1:-0.6802367235014587 2:0.46245164628309593 
-0.014057571642680955 0:0.7782743485886993 1:-0.5654494127053592 2:0.46245164628309593 
-0.03684230245721665 0:0.8571482762692099 1:-0.43673886074944407 2:0.46245164628309593 
-0.1082512890433378 0:0.9149163686759376 1:-0.2972743485886995 2:0.46245164628309593 
-0.2941093658353964 0:0.9501561836525224 1:-0.1504899553687022 2:0.46245164628309593 
-0.7822225325179062 0:0.962 1:-1.1781102207797536E-16 2:0.46245164628309593 
36.3787471358814 0:-0.9359999999999999 1:-0.0 2:0.7052471418618868 
1.8091587978106674 0:-0.924476286797049 1:-0.1464226592776561 2:0.7052471418618868 
0.04871957805909233 0:-0.8901888992522636 1:-0.28923990673495076 2:0.7052471418618868 
0.046335466687494886 0:-0.8339821066403122 1:-0.4249351077562158 2:0.7052471418618868 
0.04879044958158829 0:-0.7572399067349509 1:-0.5501669961457548 2:0.7052471418618868 
0.16387761695821723 0:-0.6618519471906085 1:-0.6618519471906084 2:0.7052471418618868 
0.340520022196273 0:-0.5501669961457548 1:-0.7572399067349509 2:0.7052471418618868 
0.4789085421312649 0:-0.4249351077562159 1:-0.8339821066403122 2:0.7052471418618868 
0.36900743457690055 0:-0.2892399067349508 1:-0.8901888992522636 2:0.7052471418618868 
0.18817896872047868 0:-0.14642265927765616 1:-0.924476286797049 2:0.7052471418618868 
0.18802123284598338 0:-5.731347020009613E-17 1:-0.9359999999999999 2:0.7052471418618868 
0.24604604680686748 0:0.14642265927765605 1:-0.924476286797049 2:0.7052471418618868 
0.46039174571507147 0:0.2892399067349507 1:-0.8901888992522637 2:0.7052471418618868 
0.6666974545016302 0:0.4249351077562158 1:-0.8339821066403122 2:0.7052471418618868 
0.30907109894883433 0:0.5501669961457548 1:-0.7572399067349509 2:0.7052471418618868 
0.16117695113636898 0:0.6618519471906084 1:-0.6618519471906085 2:0.7052471418618868 
0.03384750529112068 0:0.7572399067349508 1:-0.5501669961457549 2:0.7052471418618868 
0.04610840162125385 0:0.8339821066403122 1:-0.4249351077562159 2:0.7052471418618868 
0.18693234877530074 0:0.8901888992522636 1:-0.28923990673495087 2:0.7052471418618868 
4.061812444755134 0:0.9244762867970489 1:-0.14642265927765621 2:0.7052471418618868 
31.52237662262432 0:0.9359999999999999 1:-1.1462694040019225E-16 2:0.7052471418618868 
-0.5290329343426095 0:-0.91 1:-0.0 2:0.9051392051267433 
0.00402617020003504 0:-0.8987963899415753 1:-0.1423553631866101 2:0.9051392051267433 
-0.04865621271152065 0:-0.8108159370114147 1:-0.41313135476298757 2:0.9051392051267433 
-0.26534366592056813 0:-0.7362054648812022 1:-0.5348845795861505 2:0.9051392051267433 
-0.32160883879139135 0:-0.6434671708797582 1:-0.6434671708797581 2:0.9051392051267433 
-0.39707998507910247 0:-0.5348845795861505 1:-0.7362054648812022 2:0.9051392051267433 
-0.5220416328558457 0:-0.4131313547629877 1:-0.8108159370114146 2:0.9051392051267433 
-0.5210932116623752 0:-0.2812054648812022 1:-0.8654614298285896 2:0.9051392051267433 
-0.7672116317745292 0:-0.14235536318661013 1:-0.8987963899415753 2:0.9051392051267433 
-1.1149728521564413 0:-5.572142936120457E-17 1:-0.91 2:0.9051392051267433 
-0.9904983053841363 0:0.14235536318661005 1:-0.8987963899415753 2:0.9051392051267433 
-0.4096082735114095 0:0.28120546488120207 1:-0.8654614298285898 2:0.9051392051267433 
-0.37236745111286496 0:0.41313135476298757 1:-0.8108159370114147 2:0.9051392051267433 
-0.30836813323800527 0:0.5348845795861504 1:-0.7362054648812022 2:0.9051392051267433 
-0.23371750363217814 0:0.6434671708797581 1:-0.6434671708797582 2:0.9051392051267433 
-0.13459870017045716 0:0.7362054648812021 1:-0.5348845795861507 2:0.9051392051267433 
0.0019792448921123196 0:0.8654614298285896 1:-0.28120546488120224 2:0.9051392051267433 
0.2050085496847771 0:0.8987963899415752 1:-0.14235536318661018 2:0.9051392051267433 
0.39635216280032637 0:0.91 1:-1.1144285872240914E-16 2:0.9051392051267433 
-0.2861787677395 0:-0.884 1:-0.0 2:0.5277242885617275 
-0.009753319868437416 0:-0.7876497673825172 1:-0.40132760176975935 2:0.5277242885617275 
-0.07623267270048473 0:0.884 1:-1.0825877704462602E-16 2:0.5277242885617275 
9.86111032811695 0:-0.858 1:-0.0 2:0.04350380187751395 
0.07650492996930325 0:-0.8474365962306283 1:-0.1342207710045181 2:0.04350380187751395 
0.19963085443968964 0:-0.8160064909812418 1:-0.26513658117370487 2:0.04350380187751395 
0.3229187594742484 0:-0.7644835977536196 1:-0.3895238487765311 2:0.04350380187751395 
0.3530208187570878 0:-0.6941365811737049 1:-0.504319746466942 2:0.04350380187751395 
0.4121013630470287 0:-0.6066976182580578 1:-0.6066976182580577 2:0.04350380187751395 
0.2798561657616716 0:-0.504319746466942 1:-0.6941365811737049 2:0.04350380187751395 
0.20400244964781677 0:-0.38952384877653123 1:-0.7644835977536195 2:0.04350380187751395 
0.13719309416117653 0:-0.2651365811737049 1:-0.8160064909812418 2:0.04350380187751395 
0.27939232664280667 0:-0.13422077100451815 1:-0.8474365962306283 2:0.04350380187751395 
0.6585818430574335 0:-5.2537347683421453E-17 1:-0.858 2:0.04350380187751395 
0.31523201307525994 0:0.13422077100451804 1:-0.8474365962306283 2:0.04350380187751395 
0.14596219411897948 0:0.2651365811737048 1:-0.8160064909812419 2:0.04350380187751395 
0.32140933834926955 0:0.3895238487765311 1:-0.7644835977536196 2:0.04350380187751395 
0.3435580055399754 0:0.5043197464669419 1:-0.6941365811737049 2:0.04350380187751395 
0.35179229350842434 0:0.6066976182580577 1:-0.6066976182580578 2:0.04350380187751395 
0.3010515463985257 0:0.6941365811737049 1:-0.5043197464669421 2:0.04350380187751395 
0.3702051492068392 0:0.7644835977536195 1:-0.38952384877653123 2:0.04350380187751395 
0.1730966564475267 0:0.8160064909812418 1:-0.265136581173705 2:0.04350380187751395 
0.04143466409648511 0:0.8474365962306282 1:-0.13422077100451818 2:0.04350380187751395 
8.370365798120744 0:0.858 1:-1.0507469536684291E-16 2:0.04350380187751395 
0.23993268188682748 0:-0.832 1:-0.0 2:0.2003342066272009 
-0.01657534613292455 0:-0.8217566993751546 1:-0.1301534749134721 2:0.2003342066272009 
-0.0011380684753419246 0:-0.5883128419472075 1:-0.5883128419472075 2:0.2003342066272009 
-0.03702403850914493 0:-0.48903732990733767 1:-0.6731021393199562 2:0.2003342066272009 
-0.0781672942596714 0:-0.37772009578330296 1:-0.741317428124722 2:0.2003342066272009 
-0.06035600999770452 0:-0.2571021393199563 1:-0.7912790215575677 2:0.2003342066272009 
-0.01610598136969088 0:-0.13015347491347212 1:-0.8217566993751546 2:0.2003342066272009 
-0.03482710786683185 0:-5.094530684452989E-17 1:-0.832 2:0.2003342066272009 
-0.009367990756203426 0:0.13015347491347204 1:-0.8217566993751546 2:0.2003342066272009 
-0.027492216934234648 0:0.2571021393199562 1:-0.7912790215575678 2:0.2003342066272009 
-0.09268634642741347 0:0.37772009578330284 1:-0.741317428124722 2:0.2003342066272009 
-0.023062851351468794 0:0.48903732990733756 1:-0.6731021393199562 2:0.2003342066272009 
-0.0044956239287898825 0:0.8217566993751545 1:-0.13015347491347218 2:0.2003342066272009 
-0.10617613079485011 0:0.832 1:-1.0189061368905978E-16 2:0.2003342066272009 
-3.951219988020142 0:-0.8059999999999999 1:-0.0 2:0.9078397791250438 
-0.338250540367099 0:-0.7960768025196809 1:-0.12608617882242606 2:0.9078397791250438 
-0.27496068898773274 0:-0.7665515521338937 1:-0.24906769746620758 2:0.9078397791250438 
-0.3907609611040499 0:-0.7181512584958245 1:-0.3659163427900747 2:0.9078397791250438 
-0.23924944341555943 0:-0.6520676974662076 1:-0.47375491334773334 2:0.9078397791250438 
-0.23496680459393815 0:-0.5699280656363572 1:-0.5699280656363572 2:0.9078397791250438 
-0.29480447290521283 0:-0.47375491334773334 1:-0.6520676974662076 2:0.9078397791250438 
-0.03472986155989588 0:-0.36591634279007473 1:-0.7181512584958245 2:0.9078397791250438 
-0.13140764874890465 0:-0.24906769746620763 1:-0.7665515521338937 2:0.9078397791250438 
-0.28544126729758545 0:-0.12608617882242612 1:-0.7960768025196809 2:0.9078397791250438 
-0.8046354022002618 0:-4.9353266005638336E-17 1:-0.8059999999999999 2:0.9078397791250438 
-0.7230513937069531 0:0.126086178822426 1:-0.7960768025196809 2:0.9078397791250438 
-0.1239768894737665 0:0.24906769746620758 1:-0.7665515521338938 2:0.9078397791250438 
-0.07191164341249134 0:0.3659163427900747 1:-0.7181512584958245 2:0.9078397791250438 
-0.09218374279583941 0:0.47375491334773323 1:-0.6520676974662076 2:0.9078397791250438 
-0.4959308561712419 0:0.5699280656363572 1:-0.5699280656363572 2:0.9078397791250438 
-0.3641707771420073 0:0.6520676974662075 1:-0.47375491334773345 2:0.9078397791250438 
-1.0379087956410586 0:0.7181512584958245 1:-0.36591634279007473 2:0.9078397791250438 
-1.3867983071639571 0:0.7665515521338937 1:-0.2490676974662077 2:0.9078397791250438 
-4.377670599416049 0:0.7960768025196809 1:-0.12608617882242615 2:0.9078397791250438 
-12.62934526700819 0:0.8059999999999999 1:-9.870653201127667E-17 2:0.9078397791250438 
0.2046264124809909 0:-0.78 1:-0.0 2:0.6147723011304957 
0.0030041502179045665 0:-0.7418240827102197 1:-0.24103325561245897 2:0.6147723011304957 
0.0013932790313333498 0:-0.6310332556124589 1:-0.45847249678812907 2:0.6147723011304957 
0.005575222462354645 0:-0.5515432893255071 1:-0.5515432893255071 2:0.6147723011304957 
0.0022546987780174277 0:-0.3541125897968465 1:-0.6949850888669269 2:0.6147723011304957 
0.0019463135305102242 0:0.24103325561245892 1:-0.7418240827102198 2:0.6147723011304957 
0.005486754869110655 0:0.35411258979684646 1:-0.6949850888669269 2:0.6147723011304957 
0.003012009215964895 0:0.5515432893255071 1:-0.5515432893255071 2:0.6147723011304957 
0.004680156303678018 0:0.6310332556124589 1:-0.4584724967881291 2:0.6147723011304957 
0.015159318524624155 0:0.6949850888669269 1:-0.3541125897968465 2:0.6147723011304957 
0.012423366008960102 0:0.7418240827102197 1:-0.24103325561245906 2:0.6147723011304957 
0.34893126175958855 0:0.78 1:-9.552245033349355E-17 2:0.6147723011304957 
-4.662473565917168 0:-0.754 1:-0.0 2:0.00184664201956238 
-0.5056166260503971 0:-0.7447170088087339 1:-0.11795158664033407 2:0.00184664201956238 
-0.02667961105488814 0:-0.7170966132865457 1:-0.23299881375871034 2:0.00184664201956238 
-0.0013153287343641296 0:-0.6718189192380294 1:-0.34230883680361823 2:0.00184664201956238 
-0.0013281383343439757 0:-0.6099988137587105 1:-0.4431900802285248 2:0.00184664201956238 
-9.859890060823773E-4 0:-0.5331585130146569 1:-0.5331585130146568 2:0.00184664201956238 
-7.908287091140664E-4 0:-0.4431900802285248 1:-0.6099988137587105 2:0.00184664201956238 
-0.0010344770368817535 0:0.4431900802285247 1:-0.6099988137587105 2:0.00184664201956238 
-8.226111900455635E-4 0:0.6718189192380294 1:-0.34230883680361834 2:0.00184664201956238 
-0.04283361117646223 0:0.7170966132865457 1:-0.23299881375871043 2:0.00184664201956238 
-0.6466508593349403 0:0.7447170088087338 1:-0.11795158664033417 2:0.00184664201956238 
-4.682931065568539 0:0.754 1:-9.233836865571042E-17 2:0.00184664201956238 
2.24892408887321 0:-0.728 1:-0.0 2:0.6227324373886275 
0.4933930502846664 0:-0.7190371119532603 1:-0.11388429054928807 2:0.6227324373886275 
0.16001124187957316 0:-0.6923691438628717 1:-0.2249643719049617 2:0.6227324373886275 
0.01909810808528789 0:-0.6486527496091318 1:-0.33050508381039 2:0.6227324373886275 
0.02852426120401219 0:-0.5889643719049618 1:-0.4279076636689204 2:0.6227324373886275 
0.046721393927228405 0:-0.5147737367038067 1:-0.5147737367038066 2:0.6227324373886275 
0.14105275481870194 0:-0.4279076636689204 1:-0.5889643719049618 2:0.6227324373886275 
0.5540833642390766 0:-0.3305050838103901 1:-0.6486527496091318 2:0.6227324373886275 
0.9293841246000198 0:-0.22496437190496174 1:-0.6923691438628717 2:0.6227324373886275 
1.9260713600547916 0:-0.11388429054928811 1:-0.7190371119532603 2:0.6227324373886275 
3.74395738757822 0:-4.4577143488963657E-17 1:-0.728 2:0.6227324373886275 
2.7968981137499753 0:0.11388429054928803 1:-0.7190371119532603 2:0.6227324373886275 
0.934156748523506 0:0.22496437190496169 1:-0.6923691438628718 2:0.6227324373886275 
0.4055697753650378 0:0.33050508381039 1:-0.6486527496091318 2:0.6227324373886275 
0.15158278123145408 0:0.42790766366892036 1:-0.5889643719049618 2:0.6227324373886275 
0.02613089280158931 0:0.5147737367038066 1:-0.5147737367038067 2:0.6227324373886275 
0.03102862407614282 0:0.5889643719049616 1:-0.4279076636689205 2:0.6227324373886275 
0.06905097911666758 0:0.6486527496091318 1:-0.3305050838103901 2:0.6227324373886275 
0.2737212532640285 0:0.6923691438628717 1:-0.2249643719049618 2:0.6227324373886275 
0.5710233886996718 0:0.7190371119532603 1:-0.11388429054928816 2:0.6227324373886275 
1.2977537848800296 0:0.728 1:-8.915428697792731E-17 2:0.6227324373886275 
-0.927979920525388 0:-0.7020000000000001 1:-0.0 2:0.598063217705347 
-0.13788806636398476 0:-0.6933572150977867 1:-0.10981699445824208 2:0.598063217705347 
0.013507368624175342 0:-0.6676416744391979 1:-0.21692993005121308 2:0.598063217705347 
0.004418778353908692 0:-0.6254865799802343 1:-0.3187013308171618 2:0.598063217705347 
0.0027682592613729184 0:-0.49638896039295644 1:-0.4963889603929563 2:0.598063217705347 
0.012911793157869056 0:-0.21692993005121314 1:-0.6676416744391979 2:0.598063217705347 
0.012916630811858454 0:-4.29851026500721E-17 1:-0.7020000000000001 2:0.598063217705347 
0.008755436190043042 0:0.10981699445824204 1:-0.6933572150977867 2:0.598063217705347 
0.0031613886833810056 0:0.4126252471093161 1:-0.5679299300512132 2:0.598063217705347 
0.0035799991412659438 0:0.5679299300512131 1:-0.41262524710931625 2:0.598063217705347 
0.02893836556300755 0:0.6676416744391979 1:-0.21692993005121317 2:0.598063217705347 
-0.23391354744813952 0:0.6933572150977867 1:-0.10981699445824217 2:0.598063217705347 
-1.2935283692962258 0:0.7020000000000001 1:-8.59702053001442E-17 2:0.598063217705347 
0.935643309626343 0:-0.6759999999999999 1:-0.0 2:0.00814520711926088 
-0.47905908157413535 0:-0.6676773182423131 1:-0.10574969836719605 2:0.00814520711926088 
-0.22290454113692704 0:-0.6429142050155238 1:-0.20889548819746442 2:0.00814520711926088 
-0.028676477071201134 0:-0.6023204103513367 1:-0.3068975778239336 2:0.00814520711926088 
-0.004156589513755193 0:-0.5468954881974645 1:-0.3973428305497118 2:0.00814520711926088 
-0.00457753150975293 0:-0.47800418408210615 1:-0.47800418408210604 2:0.00814520711926088 
-0.0982252580602676 0:-0.3068975778239337 1:-0.6023204103513367 2:0.00814520711926088 
-0.07830329729220864 0:-0.20889548819746445 1:-0.6429142050155238 2:0.00814520711926088 
-0.020698418143325625 0:-0.1057496983671961 1:-0.6676773182423131 2:0.00814520711926088 
-0.12350663693146657 0:-4.139306181118053E-17 1:-0.6759999999999999 2:0.00814520711926088 
-0.1123534089693834 0:0.10574969836719601 1:-0.6676773182423131 2:0.00814520711926088 
-0.054459053878616714 0:0.2088954881974644 1:-0.6429142050155239 2:0.00814520711926088 
-0.003476438535244597 0:0.39734283054971176 1:-0.5468954881974645 2:0.00814520711926088 
-0.009340760018318406 0:0.47800418408210604 1:-0.47800418408210615 2:0.00814520711926088 
-0.030955543334755475 0:0.6023204103513367 1:-0.3068975778239337 2:0.00814520711926088 
-0.18908813298530447 0:0.6429142050155238 1:-0.2088954881974645 2:0.00814520711926088 
-0.5648843959992718 0:0.667677318242313 1:-0.10574969836719614 2:0.00814520711926088 
0.7789078159303102 0:0.6759999999999999 1:-8.278612362236107E-17 2:0.00814520711926088 
16.801707549480184 0:-0.65 1:-0.0 2:1.0 
1.1339282411595093 0:-0.6419974213868396 1:-0.10168240227615007 2:1.0 
0.33257005084624325 0:-0.6181867355918498 1:-0.2008610463437158 2:1.0 
0.09841872095609006 0:-0.579154240722439 1:-0.2950938248307054 2:1.0 
0.061641068603094595 0:-0.5258610463437159 1:-0.38206041399010754 2:1.0 
0.31916262744429247 0:-0.45961940777125593 1:-0.4596194077712558 2:1.0 
0.3457500034534873 0:-0.38206041399010754 1:-0.5258610463437159 2:1.0 
0.33089009953148507 0:-0.29509382483070545 1:-0.579154240722439 2:1.0 
0.35581727462206947 0:-0.20086104634371582 1:-0.6181867355918498 2:1.0 
0.48940815317237535 0:-0.10168240227615011 1:-0.6419974213868396 2:1.0 
0.6701987278908603 0:-3.980102097228898E-17 1:-0.65 2:1.0 
0.6199971199949675 0:0.10168240227615002 1:-0.6419974213868396 2:1.0 
0.07598092137896395 0:0.20086104634371577 1:-0.6181867355918499 2:1.0 
0.08000908896732534 0:0.2950938248307054 1:-0.579154240722439 2:1.0 
0.11216146400672852 0:0.38206041399010743 1:-0.5258610463437159 2:1.0 
0.43161927595416333 0:0.4596194077712558 1:-0.45961940777125593 2:1.0 
0.2290412652834257 0:0.5258610463437158 1:-0.3820604139901076 2:1.0 
0.8447894099116905 0:0.579154240722439 1:-0.29509382483070545 2:1.0 
1.5556141585282868 0:0.6181867355918498 1:-0.20086104634371588 2:1.0 
4.894135204746288 0:0.6419974213868395 1:-0.10168240227615012 2:1.0 
-0.13830860991262234 0:-0.4412346314604057 1:-0.4412346314604056 2:0.23494174851557156 
-0.2636599669253937 0:-0.36677799743050327 1:-0.5048266044899672 2:0.23494174851557156 
-0.16928832721181264 0:-0.28329007183747723 1:-0.5559880710935415 2:0.23494174851557156 
-0.06975850558476179 0:-0.1928266044899672 1:-0.5934592661681758 2:0.23494174851557156 
-0.10886888259136328 0:-0.09761510618510409 1:-0.6163175245313659 2:0.23494174851557156 
-0.09849578037798204 0:-3.820898013339742E-17 1:-0.624 2:0.23494174851557156 
-0.09343652006052879 0:0.09761510618510402 1:-0.6163175245313659 2:0.23494174851557156 
-0.1015367347724947 0:0.19282660448996713 1:-0.5934592661681759 2:0.23494174851557156 
-0.15277468071571637 0:0.2832900718374772 1:-0.5559880710935415 2:0.23494174851557156 
-0.295218839957214 0:0.36677799743050316 1:-0.5048266044899672 2:0.23494174851557156 
-0.08315260156876879 0:0.4412346314604056 1:-0.4412346314604057 2:0.23494174851557156 
-0.5960697160277316 0:-0.5906376276758923 1:-0.09354781009405805 2:0.4931925386101409 
-0.10854830431819829 0:-0.5687317967445018 1:-0.18479216263621853 2:0.4931925386101409 
-0.012425921437116638 0:-0.532821901464644 1:-0.27148631884424895 2:0.4931925386101409 
-0.009111940296236942 0:-0.4228498551495554 1:-0.42284985514955536 2:0.4931925386101409 
-0.008912680401569652 0:-0.35149558087089894 1:-0.4837921626362186 2:0.4931925386101409 
-0.15882834984266747 0:-0.271486318844249 1:-0.532821901464644 2:0.4931925386101409 
-0.23539105918339356 0:-0.18479216263621856 1:-0.5687317967445018 2:0.4931925386101409 
-0.7186342464693544 0:-0.09354781009405809 1:-0.5906376276758923 2:0.4931925386101409 
-1.6484615683723074 0:-3.6616939294505866E-17 1:-0.598 2:0.4931925386101409 
-1.3764223968847171 0:0.09354781009405803 1:-0.5906376276758923 2:0.4931925386101409 
-0.36969132808107247 0:0.1847921626362185 1:-0.5687317967445019 2:0.4931925386101409 
-0.07840180727808183 0:0.27148631884424895 1:-0.532821901464644 2:0.4931925386101409 
-0.045092315245363356 0:0.3514955808708989 1:-0.4837921626362186 2:0.4931925386101409 
-0.0016559512992297511 0:0.42284985514955536 1:-0.4228498551495554 2:0.4931925386101409 
-0.016179791674914915 0:0.4837921626362185 1:-0.35149558087089905 2:0.4931925386101409 
-0.012892786440983645 0:0.532821901464644 1:-0.271486318844249 2:0.4931925386101409 
-0.07828608735547789 0:0.5687317967445018 1:-0.18479216263621862 2:0.4931925386101409 
-0.6917976248148632 0:0.5906376276758923 1:-0.09354781009405812 2:0.4931925386101409 
-0.9650988628223619 0:-0.5649577308204189 1:-0.08948051400301206 2:0.33708191295808926 
-0.10129725616370765 0:-0.5440043273208278 1:-0.1767577207824699 2:0.33708191295808926 
-0.09795836256448948 0:-0.5096557318357464 1:-0.25968256585102073 2:0.33708191295808926 
-0.07526270060898682 0:-0.46275772078246996 1:-0.3362131643112946 2:0.33708191295808926 
-0.06783976482131897 0:-0.4044650788387052 1:-0.40446507883870514 2:0.33708191295808926 
-0.18294717680610112 0:-0.3362131643112946 1:-0.46275772078246996 2:0.33708191295808926 
-0.27186940593721076 0:-0.25968256585102084 1:-0.5096557318357464 2:0.33708191295808926 
-0.701545277778203 0:-0.17675772078246993 1:-0.5440043273208278 2:0.33708191295808926 
-1.4428935017848654 0:-0.08948051400301209 1:-0.5649577308204189 2:0.33708191295808926 
-2.7747025991003293 0:-3.50248984556143E-17 1:-0.5720000000000001 2:0.33708191295808926 
-1.4856160868097406 0:0.08948051400301203 1:-0.5649577308204189 2:0.33708191295808926 
-0.4651201666437994 0:0.17675772078246987 1:-0.5440043273208279 2:0.33708191295808926 
-0.27259630661740053 0:0.25968256585102073 1:-0.5096557318357464 2:0.33708191295808926 
-0.10880663040086758 0:0.33621316431129455 1:-0.46275772078246996 2:0.33708191295808926 
-0.06976463646057075 0:0.40446507883870514 1:-0.4044650788387052 2:0.33708191295808926 
-0.08141484804190856 0:0.4627577207824699 1:-0.33621316431129467 2:0.33708191295808926 
-0.09474783966607916 0:0.5096557318357464 1:-0.25968256585102084 2:0.33708191295808926 
-0.05417858443118592 0:0.5440043273208278 1:-0.17675772078246998 2:0.33708191295808926 
-0.9262582116179208 0:0.5649577308204188 1:-0.08948051400301213 2:0.33708191295808926 
-0.05296770015488903 0:-0.5392778339649453 1:-0.08541321791196606 2:0.4738990601544585 
-0.001493098491818337 0:-0.5192768578971538 1:-0.16872327892872127 2:0.4738990601544585 
-0.055399819362137115 0:-0.08541321791196609 1:-0.5392778339649453 2:0.4738990601544585 
-0.0663925022000088 0:0.24787881285779256 1:-0.4864895622068489 2:0.4738990601544585 
-0.001934093167575268 0:0.48648956220684886 1:-0.24787881285779262 2:0.4738990601544585 
-0.003995707727175013 0:0.5192768578971538 1:-0.16872327892872135 2:0.4738990601544585 
-0.07731486674066804 0:0.5392778339649452 1:-0.08541321791196611 2:0.4738990601544585 
0.020649672552616082 0:-0.39965439522122403 1:-0.29036591463248174 2:0.6020597556546963 
0.01547547029439494 0:-0.3493107499061545 1:-0.3493107499061544 2:0.6020597556546963 
0.027414277888890084 0:-0.29036591463248174 1:-0.39965439522122403 2:0.6020597556546963 
0.07985332082858401 0:-0.22427130687133612 1:-0.4401572229490537 2:0.6020597556546963 
0.19268806782016468 0:-0.15265439522122404 1:-0.4698219190498058 2:0.6020597556546963 
0.34890589960483925 0:-0.07727862572987407 1:-0.48791804025399804 2:0.6020597556546963 
0.5012311562519103 0:-3.0248775938939625E-17 1:-0.494 2:0.6020597556546963 
0.21630813487087214 0:0.07727862572987401 1:-0.48791804025399804 2:0.6020597556546963 
0.1118316590853193 0:0.15265439522122398 1:-0.46982191904980586 2:0.6020597556546963 
0.03295302167897715 0:0.22427130687133606 1:-0.44015722294905374 2:0.6020597556546963 
0.018228725818474005 0:0.2903659146324817 1:-0.39965439522122403 2:0.6020597556546963 
0.018861844819719243 0:0.3493107499061544 1:-0.3493107499061545 2:0.6020597556546963 
1.523838464206423 0:-0.4622381433985245 1:-0.07321132963882805 2:0.2068897119712122 
1.3025108273077484 0:-0.4450944496261318 1:-0.14461995336747538 2:0.2068897119712122 
0.17843921205524213 0:-0.4169910533201561 1:-0.2124675538781079 2:0.2068897119712122 
0.10840135053189055 0:-0.37861995336747545 1:-0.2750834980728774 2:0.2068897119712122 
0.008209450180507583 0:-0.33092597359530423 1:-0.3309259735953042 2:0.2068897119712122 
0.0024053460198573432 0:-0.1446199533674754 1:-0.4450944496261318 2:0.2068897119712122 
0.021223548635470775 0:-0.07321132963882808 1:-0.4622381433985245 2:0.2068897119712122 
0.021799933567107053 0:-2.8656735100048063E-17 1:-0.46799999999999997 2:0.2068897119712122 
0.07644184117654709 0:0.07321132963882802 1:-0.4622381433985245 2:0.2068897119712122 
0.028783697135878035 0:0.14461995336747535 1:-0.44509444962613187 2:0.2068897119712122 
0.011895429380547402 0:0.2124675538781079 1:-0.4169910533201561 2:0.2068897119712122 
0.005604344305408355 0:0.2750834980728774 1:-0.37861995336747545 2:0.2068897119712122 
0.0033777279985722536 0:0.3309259735953042 1:-0.33092597359530423 2:0.2068897119712122 
0.09334213774437447 0:0.3786199533674754 1:-0.27508349807287746 2:0.2068897119712122 
0.12370442821327549 0:0.4169910533201561 1:-0.21246755387810795 2:0.2068897119712122 
1.4802894860149438 0:0.4450944496261318 1:-0.14461995336747543 2:0.2068897119712122 
1.60644284607304 0:0.4622381433985244 1:-0.07321132963882811 2:0.2068897119712122 
0.00338490411054604 0:-0.35758551151372675 1:-0.25980108151327314 2:0.5911019592159553 
0.030979113099348657 0:-0.25980108151327314 1:-0.35758551151372675 2:0.5911019592159553 
0.007563976228235301 0:-0.20066380088487973 1:-0.39382488369125856 2:0.5911019592159553 
0.01195184739713776 0:-0.13658551151372678 1:-0.4203669802024579 2:0.5911019592159553 
0.024355948198637564 0:-0.06914403354778206 1:-0.4365582465430509 2:0.5911019592159553 
0.059614295099908225 0:-2.7064694261156504E-17 1:-0.442 2:0.5911019592159553 
0.018184728913043974 0:0.06914403354778202 1:-0.4365582465430509 2:0.5911019592159553 
0.008617762766848665 0:0.13658551151372672 1:-0.42036698020245794 2:0.5911019592159553 
0.015391798400988942 0:0.20066380088487967 1:-0.3938248836912586 2:0.5911019592159553 
0.02353092556653262 0:0.2598010815132731 1:-0.35758551151372675 2:0.5911019592159553 
0.18800122101971029 0:-0.4108783496875773 1:-0.06507673745673605 2:0.025715596109577615 
0.04196283063788902 0:-0.39563951077878384 1:-0.12855106965997812 2:0.025715596109577615 
0.0016635774919451585 0:-0.370658714062361 1:-0.18886004789165142 2:0.025715596109577615 
0.009803380779289803 0:-0.3365510696599781 1:-0.24451866495366884 2:0.025715596109577615 
0.004298817555887859 0:-0.24451866495366884 1:-0.3365510696599781 2:0.025715596109577615 
0.005433086701595049 0:-0.18886004789165148 1:-0.370658714062361 2:0.025715596109577615 
0.03785441680779977 0:-0.12855106965997815 1:-0.39563951077878384 2:0.025715596109577615 
0.09092285021994471 0:-0.06507673745673606 1:-0.4108783496875773 2:0.025715596109577615 
0.07119810053807109 0:-2.5472653422264946E-17 1:-0.416 2:0.025715596109577615 
0.07468974196304377 0:0.06507673745673602 1:-0.4108783496875773 2:0.025715596109577615 
0.006487709288848244 0:0.1285510696599781 1:-0.3956395107787839 2:0.025715596109577615 
0.00473533425961806 0:0.18886004789165142 1:-0.370658714062361 2:0.025715596109577615 
0.0029181744606614633 0:0.24451866495366878 1:-0.3365510696599781 2:0.025715596109577615 
0.0033003208095157242 0:0.33655106965997805 1:-0.24451866495366884 2:0.025715596109577615 
0.02938217174980283 0:0.39563951077878384 1:-0.12855106965997817 2:0.025715596109577615 
0.1718847457252769 0:0.41087834968757725 1:-0.06507673745673609 2:0.025715596109577615 
0.019533082094597424 0:-0.22923624839406453 1:-0.31551662780622947 2:0.568786361986906 
0.01492422949198259 0:-0.17705629489842326 1:-0.34749254443346345 2:0.568786361986906 
-2.3042032038202995 0:-0.3595185559766301 1:-0.056942145274644036 2:0.9245706451148239 
-0.8401322885324406 0:-0.34618457193143587 1:-0.11248218595248086 2:0.9245706451148239 
-0.3588171245519216 0:-0.3243263748045659 1:-0.165252541905195 2:0.9245706451148239 
-0.19916785004022378 0:-0.2944821859524809 1:-0.2139538318344602 2:0.9245706451148239 
-0.15321437505257576 0:-0.25738686835190333 1:-0.2573868683519033 2:0.9245706451148239 
-0.060109846144786205 0:-0.2139538318344602 1:-0.2944821859524809 2:0.9245706451148239 
-0.056519273365622374 0:-0.16525254190519506 1:-0.3243263748045659 2:0.9245706451148239 
-0.04445612826868923 0:-0.11248218595248087 1:-0.34618457193143587 2:0.9245706451148239 
-0.10107379129965045 0:-0.05694214527464406 1:-0.3595185559766301 2:0.9245706451148239 
-0.06988056745355654 0:-2.2288571744481828E-17 1:-0.364 2:0.9245706451148239 
-0.11988092118972048 0:0.056942145274644015 1:-0.3595185559766301 2:0.9245706451148239 
-0.09766150713392938 0:0.11248218595248084 1:-0.3461845719314359 2:0.9245706451148239 
-0.17738014218838158 0:0.165252541905195 1:-0.3243263748045659 2:0.9245706451148239 
-0.10864718998654822 0:0.21395383183446018 1:-0.2944821859524809 2:0.9245706451148239 
-0.17757854214782534 0:0.2573868683519033 1:-0.25738686835190333 2:0.9245706451148239 
-0.23746279096061407 0:0.2944821859524808 1:-0.21395383183446026 2:0.9245706451148239 
-0.33817700127177525 0:0.3243263748045659 1:-0.16525254190519506 2:0.9245706451148239 
-0.7585432765393832 0:0.34618457193143587 1:-0.1124821859524809 2:0.9245706451148239 
-1.4338131696760044 0:0.3595185559766301 1:-0.05694214527464408 2:0.9245706451148239 
-0.29103498743727596 0:-0.33383865912115657 1:-0.05287484918359803 2:0.0022561228639827622 
-0.20710054515364762 0:-0.3214571025077619 1:-0.10444774409873221 2:0.0022561228639827622 
-0.07350082701209419 0:-0.3011602051756683 1:-0.1534487889119668 2:0.0022561228639827622 
-0.05153970169423106 0:-0.27344774409873224 1:-0.1986714152748559 2:0.0022561228639827622 
-0.09378747622546917 0:-0.23900209204105308 1:-0.23900209204105302 2:0.0022561228639827622 
-0.17523655788462594 0:-0.1986714152748559 1:-0.27344774409873224 2:0.0022561228639827622 
-0.20166692290666713 0:-0.15344878891196684 1:-0.3011602051756683 2:0.0022561228639827622 
-0.3066919601289572 0:-0.10444774409873223 1:-0.3214571025077619 2:0.0022561228639827622 
-0.2953508623627566 0:-0.05287484918359805 1:-0.33383865912115657 2:0.0022561228639827622 
-0.5266576108967971 0:-2.0696530905590267E-17 1:-0.33799999999999997 2:0.0022561228639827622 
-0.34301014294596543 0:0.052874849183598006 1:-0.33383865912115657 2:0.0022561228639827622 
-0.36326737874187026 0:0.1044477440987322 1:-0.32145710250776194 2:0.0022561228639827622 
-0.1956551529919753 0:0.1534487889119668 1:-0.3011602051756683 2:0.0022561228639827622 
-0.14321808803833305 0:0.19867141527485588 1:-0.27344774409873224 2:0.0022561228639827622 
-0.10421786844309305 0:0.23900209204105302 1:-0.23900209204105308 2:0.0022561228639827622 
-0.08456323242927517 0:0.2734477440987322 1:-0.19867141527485593 2:0.0022561228639827622 
-0.08264343124466383 0:0.3011602051756683 1:-0.15344878891196684 2:0.0022561228639827622 
-0.1905484002169626 0:0.3214571025077619 1:-0.10444774409873225 2:0.0022561228639827622 
-0.3606730301098864 0:0.3338386591211565 1:-0.05287484918359807 2:0.0022561228639827622 
0.4179374842300352 0:-0.2567989685547358 1:-0.04067296091046002 2:0.16719440454961645 
0.33224339500773764 0:-0.2472746942367399 1:-0.08034441853748632 2:0.16719440454961645 
0.34675632820223695 0:-0.23166169628897565 1:-0.11803752993228214 2:0.16719440454961645 
0.45220213463901915 0:-0.21034441853748634 1:-0.152824165596043 2:0.16719440454961645 
0.5106113849911282 0:-0.18384776310850237 1:-0.18384776310850234 2:0.16719440454961645 
0.45878936320632036 0:-0.152824165596043 1:-0.21034441853748634 2:0.16719440454961645 
0.3737506911951812 0:-0.11803752993228217 1:-0.23166169628897562 2:0.16719440454961645 
0.4086052248948108 0:-0.08034441853748633 1:-0.2472746942367399 2:0.16719440454961645 
0.27103668896287925 0:-0.040672960910460035 1:-0.2567989685547358 2:0.16719440454961645 
0.35431697436813936 0:-1.592040838891559E-17 1:-0.25999999999999995 2:0.16719440454961645 
0.33953361536335697 0:0.04067296091046001 1:-0.2567989685547358 2:0.16719440454961645 
0.4446321894728012 0:0.0803444185374863 1:-0.24727469423673995 2:0.16719440454961645 
0.4206981674809955 0:0.11803752993228214 1:-0.23166169628897565 2:0.16719440454961645 
0.45297677518361157 0:0.15282416559604298 1:-0.21034441853748634 2:0.16719440454961645 
0.5190398971894132 0:0.18384776310850234 1:-0.18384776310850237 2:0.16719440454961645 
0.436917154330278 0:0.2103444185374863 1:-0.15282416559604303 2:0.16719440454961645 
0.2707194622389909 0:0.23166169628897562 1:-0.11803752993228217 2:0.16719440454961645 
0.2849732574268438 0:0.2472746942367399 1:-0.08034441853748633 2:0.16719440454961645 
0.42534557123560407 0:0.2567989685547358 1:-0.040672960910460056 2:0.16719440454961645 
0.008961076396993967 0:-0.14836481654204395 1:-0.04820665112249179 2:0.6005807675598227 
0.006120669809990135 0:-0.13899701777338538 1:-0.0708225179593693 2:0.6005807675598227 
0.008880564466164951 0:-0.1262066511224918 1:-0.09169449935762582 2:0.6005807675598227 
0.022082216692047893 0:-0.11030865786510143 1:-0.1103086578651014 2:0.6005807675598227 
0.2183951013541605 0:-0.09169449935762582 1:-0.1262066511224918 2:0.6005807675598227 
0.025745534429203385 0:-0.07082251795936931 1:-0.13899701777338538 2:0.6005807675598227 
0.5768641399500405 0:-0.0482066511224918 1:-0.14836481654204395 2:0.6005807675598227 
0.18678288647262406 0:-0.024403776546276023 1:-0.15407938113284148 2:0.6005807675598227 
0.9156779081456397 0:-9.552245033349355E-18 1:-0.156 2:0.6005807675598227 
0.158591929287647 0:0.024403776546276006 1:-0.15407938113284148 2:0.6005807675598227 
0.5058397342409126 0:0.048206651122491784 1:-0.14836481654204398 2:0.6005807675598227 
0.040527941855609484 0:0.0708225179593693 1:-0.13899701777338538 2:0.6005807675598227 
0.17257991879018691 0:0.09169449935762579 1:-0.1262066511224918 2:0.6005807675598227 
0.01916699509389034 0:0.1103086578651014 1:-0.11030865786510143 2:0.6005807675598227 
0.00417312469924624 0:0.12620665112249177 1:-0.09169449935762583 2:0.6005807675598227 
0.00250107725532919 0:0.14836481654204395 1:-0.04820665112249181 2:0.6005807675598227 
-0.012148663496154222 0:-0.09890987769469596 1:-0.03213776741499453 2:0.33105093583660833 
-0.11532357547695003 0:-0.09266467851559025 1:-0.047215011972912856 2:0.33105093583660833 
-0.009611897951336823 0:-0.08413776741499453 1:-0.06112966623841721 2:0.33105093583660833 
-0.32834778735001957 0:-0.06112966623841721 1:-0.08413776741499453 2:0.33105093583660833 
-0.03320424397611081 0:-0.032137767414994536 1:-0.09890987769469596 2:0.33105093583660833 
-0.08759618726493826 0:-6.3681633555662364E-18 1:-0.104 2:0.33105093583660833 
-0.048981208247186936 0:0.03213776741499452 1:-0.09890987769469597 2:0.33105093583660833 
-0.2516061113358643 0:0.061129666238417195 1:-0.08413776741499453 2:0.33105093583660833 
-0.00463312420357762 0:0.08413776741499451 1:-0.06112966623841721 2:0.33105093583660833 
-0.11880456576219146 0:0.09266467851559025 1:-0.04721501197291287 2:0.33105093583660833 
-0.0020549973275985063 0:0.09890987769469596 1:-0.03213776741499454 2:0.33105093583660833 
-0.0041738052115123355 0:-0.023166169628897563 1:-0.011803752993228214 2:0.029589167733571585 
-0.03178080808075943 0:-0.021034441853748632 1:-0.015282416559604302 2:0.029589167733571585 
-0.039921259920137765 0:-0.011803752993228217 1:-0.023166169628897563 2:0.029589167733571585 
-0.008543166066097445 0:-0.008034441853748634 1:-0.02472746942367399 2:0.029589167733571585 
-0.012084343516663976 0:-1.5920408388915591E-18 1:-0.026 2:0.029589167733571585 
-0.01028185240626115 0:0.00803444185374863 1:-0.024727469423673994 2:0.029589167733571585 
-0.033517396508528835 0:0.011803752993228214 1:-0.023166169628897563 2:0.029589167733571585 
-0.016333164251567393 0:0.02103444185374863 1:-0.015282416559604302 2:0.029589167733571585 
-0.010480198302987293 0:0.023166169628897563 1:-0.011803752993228217 2:0.029589167733571585 
-0.026252819466498423 0:0.026 1:0.0 2:0.029589167733571585 
-0.002602484236963347 0:0.02567989685547358 1:0.004067296091046003 2:0.029589167733571585 
-0.0035129285284866366 0:0.023166169628897563 1:0.011803752993228214 2:0.029589167733571585 
-0.0045878098228271475 0:0.021034441853748632 1:0.015282416559604302 2:0.029589167733571585 
-0.0012173104719121353 0:0.018384776310850233 1:0.018384776310850233 2:0.029589167733571585 
-0.01370394478207242 0:0.011803752993228217 1:0.023166169628897563 2:0.029589167733571585 
-0.018989599864795776 0:0.008034441853748634 1:0.02472746942367399 2:0.029589167733571585 
-0.003925627379825112 0:0.004067296091046004 1:0.02567989685547358 2:0.029589167733571585 
-0.010522094560225076 0:1.5920408388915591E-18 1:0.026 2:0.029589167733571585 
-0.01890295907053807 0:-0.00803444185374863 1:0.024727469423673994 2:0.029589167733571585 
-0.007460295227678415 0:-0.011803752993228214 1:0.023166169628897563 2:0.029589167733571585 
-0.02449302210911367 0:-0.02103444185374863 1:0.015282416559604302 2:0.029589167733571585 
-0.0017891002986436977 0:-0.023166169628897563 1:0.011803752993228217 2:0.029589167733571585 
-0.0026775402446759617 0:-0.02472746942367399 1:0.008034441853748636 2:0.029589167733571585 
-0.02686836968622804 0:-0.026 1:3.1840816777831182E-18 2:0.029589167733571585 
-0.9462496630179714 0:0.104 1:0.0 2:0.33105093583660833 
-0.0903496262719783 0:0.09890987769469596 1:0.03213776741499453 2:0.33105093583660833 
-0.5019849101615617 0:0.09266467851559025 1:0.047215011972912856 2:0.33105093583660833 
-0.07115047104341567 0:0.08413776741499453 1:0.06112966623841721 2:0.33105093583660833 
-0.01872566403325853 0:0.07353910524340093 1:0.07353910524340093 2:0.33105093583660833 
-1.023497515360382 0:0.06112966623841721 1:0.08413776741499453 2:0.33105093583660833 
-0.3636140409895219 0:0.032137767414994536 1:0.09890987769469596 2:0.33105093583660833 
-0.001672925818450581 0:0.016269184364184015 1:0.10271958742189433 2:0.33105093583660833 
-0.6283471828107757 0:6.3681633555662364E-18 1:0.104 2:0.33105093583660833 
-0.3325512705975549 0:-0.03213776741499452 1:0.09890987769469597 2:0.33105093583660833 
-0.0036738639445180626 0:-0.047215011972912856 1:0.09266467851559025 2:0.33105093583660833 
-0.8688375984867848 0:-0.061129666238417195 1:0.08413776741499453 2:0.33105093583660833 
-0.016507895492804233 0:-0.07353910524340093 1:0.07353910524340093 2:0.33105093583660833 
-0.13450938435563858 0:-0.08413776741499451 1:0.06112966623841721 2:0.33105093583660833 
-0.33227274473717494 0:-0.09266467851559025 1:0.04721501197291287 2:0.33105093583660833 
-0.180433425182703 0:-0.09890987769469596 1:0.03213776741499454 2:0.33105093583660833 
-1.082024479248596 0:-0.104 1:1.2736326711132473E-17 2:0.33105093583660833 
0.0036634813061417098 0:0.156 1:0.0 2:0.6005807675598227 
0.001141176956030819 0:0.1262066511224918 1:0.09169449935762582 2:0.6005807675598227 
0.011552991330344464 0:0.11030865786510143 1:0.1103086578651014 2:0.6005807675598227 
0.07756861759595061 0:0.09169449935762582 1:0.1262066511224918 2:0.6005807675598227 
0.013261560839395775 0:0.07082251795936931 1:0.13899701777338538 2:0.6005807675598227 
0.3065222004775698 0:0.0482066511224918 1:0.14836481654204395 2:0.6005807675598227 
0.09596558692775665 0:0.024403776546276023 1:0.15407938113284148 2:0.6005807675598227 
1.1133973001412747 0:9.552245033349355E-18 1:0.156 2:0.6005807675598227 
0.14150197711807594 0:-0.024403776546276006 1:0.15407938113284148 2:0.6005807675598227 
0.6040353006420917 0:-0.048206651122491784 1:0.14836481654204398 2:0.6005807675598227 
0.023588431549524624 0:-0.0708225179593693 1:0.13899701777338538 2:0.6005807675598227 
0.14037236589700966 0:-0.09169449935762579 1:0.1262066511224918 2:0.6005807675598227 
0.021812977416829082 0:-0.1103086578651014 1:0.11030865786510143 2:0.6005807675598227 
0.0028877611090591714 0:-0.12620665112249177 1:0.09169449935762583 2:0.6005807675598227 
0.002564709175254023 0:-0.14836481654204395 1:0.04820665112249181 2:0.6005807675598227 
0.001296505243722285 0:-0.156 1:1.910449006669871E-17 2:0.6005807675598227 
0.14535899847893305 0:0.25999999999999995 1:0.0 2:0.16719440454961645 
0.2422732346817336 0:0.2567989685547358 1:0.04067296091046002 2:0.16719440454961645 
0.04099825167494395 0:0.2472746942367399 1:0.08034441853748632 2:0.16719440454961645 
0.01086660258046344 0:0.23166169628897565 1:0.11803752993228214 2:0.16719440454961645 
0.009340151978527444 0:0.21034441853748634 1:0.152824165596043 2:0.16719440454961645 
0.0024887240673812684 0:0.152824165596043 1:0.21034441853748634 2:0.16719440454961645 
0.0024038511497560047 0:0.11803752993228217 1:0.23166169628897562 2:0.16719440454961645 
0.0015342263996440098 0:0.08034441853748633 1:0.2472746942367399 2:0.16719440454961645 
0.0016323989478091929 0:-0.0803444185374863 1:0.24727469423673995 2:0.16719440454961645 
0.0022135232834846683 0:-0.15282416559604298 1:0.21034441853748634 2:0.16719440454961645 
0.003934267610001564 0:-0.2103444185374863 1:0.15282416559604303 2:0.16719440454961645 
0.02171740243742352 0:-0.23166169628897562 1:0.11803752993228217 2:0.16719440454961645 
0.039108941154083414 0:-0.2472746942367399 1:0.08034441853748633 2:0.16719440454961645 
0.27665611246031635 0:-0.2567989685547358 1:0.040672960910460056 2:0.16719440454961645 
0.18168817302964704 0:-0.25999999999999995 1:3.184081677783118E-17 2:0.16719440454961645 
0.0590535618674019 0:1.910449006669871E-17 1:0.312 2:0.8824437454882555 
-0.33898006376455514 0:0.33799999999999997 1:0.0 2:0.0022561228639827622 
-0.21319285854058267 0:0.33383865912115657 1:0.05287484918359803 2:0.0022561228639827622 
-0.02171621018388233 0:0.3214571025077619 1:0.10444774409873221 2:0.0022561228639827622 
-0.00619480587935089 0:0.3011602051756683 1:0.1534487889119668 2:0.0022561228639827622 
-8.439957415408896E-4 0:0.27344774409873224 1:0.1986714152748559 2:0.0022561228639827622 
-0.005605874742166957 0:0.23900209204105308 1:0.23900209204105302 2:0.0022561228639827622 
-0.014247343984634208 0:0.1986714152748559 1:0.27344774409873224 2:0.0022561228639827622 
-0.05223392945580271 0:0.15344878891196684 1:0.3011602051756683 2:0.0022561228639827622 
-0.0811964687866117 0:0.10444774409873223 1:0.3214571025077619 2:0.0022561228639827622 
-0.16261771713460133 0:0.05287484918359805 1:0.33383865912115657 2:0.0022561228639827622 
-0.27640216766401626 0:2.0696530905590267E-17 1:0.33799999999999997 2:0.0022561228639827622 
-0.046333879681348084 0:-0.052874849183598006 1:0.33383865912115657 2:0.0022561228639827622 
-0.07264465173739768 0:-0.1044477440987322 1:0.32145710250776194 2:0.0022561228639827622 
-0.0389632494169939 0:-0.1534487889119668 1:0.3011602051756683 2:0.0022561228639827622 
-0.0263845211571599 0:-0.19867141527485588 1:0.27344774409873224 2:0.0022561228639827622 
-0.004850288929471501 0:-0.23900209204105302 1:0.23900209204105308 2:0.0022561228639827622 
-0.0161827690432519 0:-0.2734477440987322 1:0.19867141527485593 2:0.0022561228639827622 
-0.012170402430013882 0:-0.3011602051756683 1:0.15344878891196684 2:0.0022561228639827622 
-0.04489305586528334 0:-0.3214571025077619 1:0.10444774409873225 2:0.0022561228639827622 
-0.10880762658956923 0:-0.3338386591211565 1:0.05287484918359807 2:0.0022561228639827622 
-0.29771676746315834 0:-0.33799999999999997 1:4.139306181118053E-17 2:0.0022561228639827622 
-2.3546420535220007 0:0.364 1:0.0 2:0.9245706451148239 
-0.3411316600593687 0:0.3595185559766301 1:0.056942145274644036 2:0.9245706451148239 
-0.06339995326781833 0:0.34618457193143587 1:0.11248218595248086 2:0.9245706451148239 
-0.008107403598921571 0:0.3243263748045659 1:0.165252541905195 2:0.9245706451148239 
-0.051942351014655476 0:-0.34618457193143587 1:0.1124821859524809 2:0.9245706451148239 
-0.44833592202945954 0:-0.3595185559766301 1:0.05694214527464408 2:0.9245706451148239 
-2.794278776150045 0:-0.364 1:4.4577143488963657E-17 2:0.9245706451148239 
0.37859482912696973 0:0.416 1:0.0 2:0.025715596109577615 
0.19369775187936103 0:0.4108783496875773 1:0.06507673745673605 2:0.025715596109577615 
0.21604353683964392 0:0.39563951077878384 1:0.12855106965997812 2:0.025715596109577615 
0.03950061577072993 0:0.370658714062361 1:0.18886004789165142 2:0.025715596109577615 
0.05413082750127529 0:0.3365510696599781 1:0.24451866495366884 2:0.025715596109577615 
0.012255474119662872 0:0.2941564209736037 1:0.2941564209736037 2:0.025715596109577615 
0.008976055551703017 0:0.24451866495366884 1:0.3365510696599781 2:0.025715596109577615 
0.006571518992670319 0:0.18886004789165148 1:0.370658714062361 2:0.025715596109577615 
0.009862100731352396 0:0.12855106965997815 1:0.39563951077878384 2:0.025715596109577615 
0.018952157466492734 0:0.06507673745673606 1:0.4108783496875773 2:0.025715596109577615 
0.008444735011249812 0:2.5472653422264946E-17 1:0.416 2:0.025715596109577615 
0.019121885287179192 0:-0.06507673745673602 1:0.4108783496875773 2:0.025715596109577615 
0.010330381797933535 0:-0.1285510696599781 1:0.3956395107787839 2:0.025715596109577615 
0.007256306955635712 0:-0.18886004789165142 1:0.370658714062361 2:0.025715596109577615 
0.022347121411525978 0:-0.24451866495366878 1:0.3365510696599781 2:0.025715596109577615 
0.04424930666873877 0:-0.33655106965997805 1:0.24451866495366884 2:0.025715596109577615 
0.023585332697073417 0:-0.370658714062361 1:0.18886004789165148 2:0.025715596109577615 
0.19776410739175218 0:-0.39563951077878384 1:0.12855106965997817 2:0.025715596109577615 
0.24040141633507595 0:-0.41087834968757725 1:0.06507673745673609 2:0.025715596109577615 
0.5046213297361378 0:-0.416 1:5.094530684452989E-17 2:0.025715596109577615 
5.26139563384025 0:0.46799999999999997 1:0.0 2:0.2068897119712122 
1.2414887232105425 0:0.4622381433985245 1:0.07321132963882805 2:0.2068897119712122 
0.39298198858359956 0:0.4450944496261318 1:0.14461995336747538 2:0.2068897119712122 
0.004523543898183095 0:0.4169910533201561 1:0.2124675538781079 2:0.2068897119712122 
0.0038501425020561492 0:-0.4169910533201561 1:0.21246755387810795 2:0.2068897119712122 
0.3295050128471759 0:-0.4450944496261318 1:0.14461995336747543 2:0.2068897119712122 
1.0271119402745177 0:-0.4622381433985244 1:0.07321132963882811 2:0.2068897119712122 
5.437738323537952 0:-0.46799999999999997 1:5.731347020009613E-17 2:0.2068897119712122 
0.035444237809430214 0:0.15265439522122404 1:0.4698219190498058 2:0.6020597556546963 
0.29426005483480683 0:0.07727862572987407 1:0.48791804025399804 2:0.6020597556546963 
1.7423548419735604 0:3.0248775938939625E-17 1:0.494 2:0.6020597556546963 
0.5166743636979312 0:-0.07727862572987401 1:0.48791804025399804 2:0.6020597556546963 
0.08590292700420024 0:-0.15265439522122398 1:0.46982191904980586 2:0.6020597556546963 
0.003992656292993938 0:-0.22427130687133606 1:0.44015722294905374 2:0.6020597556546963 
-0.12135087999501619 0:0.546 1:0.0 2:0.4738990601544585 
-0.07854605824815405 0:0.5392778339649453 1:0.08541321791196606 2:0.4738990601544585 
-0.002872738552964674 0:-0.5192768578971538 1:0.16872327892872135 2:0.4738990601544585 
-0.06765706655664458 0:-0.5392778339649452 1:0.08541321791196611 2:0.4738990601544585 
-0.09600804784199797 0:-0.546 1:6.686571523344548E-17 2:0.4738990601544585 
-0.9762245983325119 0:0.5720000000000001 1:0.0 2:0.33708191295808926 
-0.01402821619626568 0:0.5649577308204189 1:0.08948051400301206 2:0.33708191295808926 
-0.010292321769968776 0:0.5440043273208278 1:0.1767577207824699 2:0.33708191295808926 
-0.0027346429793276995 0:0.5096557318357464 1:0.25968256585102073 2:0.33708191295808926 
-0.007790350591529947 0:0.4044650788387052 1:0.40446507883870514 2:0.33708191295808926 
-0.027496123722485912 0:0.3362131643112946 1:0.46275772078246996 2:0.33708191295808926 
-0.12226087230386667 0:0.25968256585102084 1:0.5096557318357464 2:0.33708191295808926 
-0.43470318793031043 0:0.17675772078246993 1:0.5440043273208278 2:0.33708191295808926 
-1.025150679752666 0:0.08948051400301209 1:0.5649577308204189 2:0.33708191295808926 
-2.1715256600614863 0:3.50248984556143E-17 1:0.5720000000000001 2:0.33708191295808926 
-1.1756169896769801 0:-0.08948051400301203 1:0.5649577308204189 2:0.33708191295808926 
-0.49590338979427573 0:-0.17675772078246987 1:0.5440043273208279 2:0.33708191295808926 
-0.12508518801736895 0:-0.25968256585102073 1:0.5096557318357464 2:0.33708191295808926 
-0.027452417974176378 0:-0.33621316431129455 1:0.46275772078246996 2:0.33708191295808926 
-0.006895330825775436 0:-0.40446507883870514 1:0.4044650788387052 2:0.33708191295808926 
-0.003129007819383098 0:-0.5096557318357464 1:0.25968256585102084 2:0.33708191295808926 
-0.01724634663104763 0:-0.5440043273208278 1:0.17675772078246998 2:0.33708191295808926 
-0.08686515228763005 0:-0.5649577308204188 1:0.08948051400301213 2:0.33708191295808926 
-0.9947508423205034 0:-0.5720000000000001 1:7.00497969112286E-17 2:0.33708191295808926 
-0.7452532987579115 0:0.598 1:0.0 2:0.4931925386101409 
-0.016379486225436654 0:0.5906376276758923 1:0.09354781009405805 2:0.4931925386101409 
-0.034432612651596486 0:-0.5906376276758923 1:0.09354781009405812 2:0.4931925386101409 
-0.7702403640818568 0:-0.598 1:7.323387858901173E-17 2:0.4931925386101409 
-0.11768347793481965 0:0.09761510618510409 1:0.6163175245313659 2:0.23494174851557156 
-0.6269484538777413 0:3.820898013339742E-17 1:0.624 2:0.23494174851557156 
-0.08473834652871266 0:-0.09761510618510402 1:0.6163175245313659 2:0.23494174851557156 
8.740015046600915 0:0.65 1:0.0 2:1.0 
2.0456847132124 0:0.6419974213868396 1:0.10168240227615007 2:1.0 
0.2628782926518506 0:0.6181867355918498 1:0.2008610463437158 2:1.0 
0.12924285032491306 0:0.579154240722439 1:0.2950938248307054 2:1.0 
0.04590214014270155 0:0.5258610463437159 1:0.38206041399010754 2:1.0 
0.058931143710459696 0:0.45961940777125593 1:0.4596194077712558 2:1.0 
0.05358184275121779 0:0.38206041399010754 1:0.5258610463437159 2:1.0 
0.06884301429666947 0:0.29509382483070545 1:0.579154240722439 2:1.0 
0.15080699321450963 0:0.20086104634371582 1:0.6181867355918498 2:1.0 
0.33563511948048597 0:0.10168240227615011 1:0.6419974213868396 2:1.0 
0.023113583618449028 0:-0.10168240227615002 1:0.6419974213868396 2:1.0 
0.058060501972448 0:-0.20086104634371577 1:0.6181867355918499 2:1.0 
0.01789260919434888 0:-0.2950938248307054 1:0.579154240722439 2:1.0 
0.002716048721550715 0:-0.579154240722439 1:0.29509382483070545 2:1.0 
0.04835928895196117 0:-0.6181867355918498 1:0.20086104634371588 2:1.0 
0.19407793620516897 0:-0.6419974213868395 1:0.10168240227615012 2:1.0 
1.8071029288967024 0:-0.65 1:7.960204194457795E-17 2:1.0 
-0.07522321897260835 0:0.7020000000000001 1:0.0 2:0.598063217705347 
-0.10610331795328386 0:-0.7020000000000001 1:8.59702053001442E-17 2:0.598063217705347 
-1.888915817339918 0:0.728 1:0.0 2:0.6227324373886275 
0.01812534766147156 0:0.3305050838103901 1:0.6486527496091318 2:0.6227324373886275 
0.12397765251385713 0:0.22496437190496174 1:0.6923691438628717 2:0.6227324373886275 
0.3076692522508396 0:0.11388429054928811 1:0.7190371119532603 2:0.6227324373886275 
1.595412651368638 0:4.4577143488963657E-17 1:0.728 2:0.6227324373886275 
0.45487403321859377 0:-0.11388429054928803 1:0.7190371119532603 2:0.6227324373886275 
0.13660446950396973 0:-0.22496437190496169 1:0.6923691438628718 2:0.6227324373886275 
0.03144942644965184 0:-0.33050508381039 1:0.6486527496091318 2:0.6227324373886275 
0.002063385770514723 0:-0.42790766366892036 1:0.5889643719049618 2:0.6227324373886275 
-1.7996786606521373 0:-0.728 1:8.915428697792731E-17 2:0.6227324373886275 
-8.816807180623812 0:0.754 1:0.0 2:0.00184664201956238 
-0.008330685376822756 0:0.7447170088087339 1:0.11795158664033407 2:0.00184664201956238 
-0.0264337013432214 0:-0.7447170088087338 1:0.11795158664033417 2:0.00184664201956238 
-10.928835484976082 0:-0.754 1:9.233836865571042E-17 2:0.00184664201956238 
0.006586201109668059 0:0.78 1:0.0 2:0.6147723011304957 
-0.04272438588974265 0:-0.78 1:9.552245033349355E-17 2:0.6147723011304957 
-12.790706269302362 0:0.8059999999999999 1:0.0 2:0.9078397791250438 
-1.0114849327466873 0:0.7960768025196809 1:0.12608617882242606 2:0.9078397791250438 
-0.024375670268568177 0:0.7665515521338937 1:0.24906769746620758 2:0.9078397791250438 
-0.019877429003788614 0:0.7181512584958245 1:0.3659163427900747 2:0.9078397791250438 
-0.0038686173242088277 0:0.6520676974662076 1:0.47375491334773334 2:0.9078397791250438 
-7.352532447366525E-4 0:-0.7181512584958245 1:0.36591634279007473 2:0.9078397791250438 
-0.09298524903574573 0:-0.7665515521338937 1:0.2490676974662077 2:0.9078397791250438 
-0.11797717662491744 0:-0.7960768025196809 1:0.12608617882242615 2:0.9078397791250438 
-29.637596150525372 0:-0.8059999999999999 1:9.870653201127667E-17 2:0.9078397791250438 
-2.5537899616271904 0:0.832 1:0.0 2:0.2003342066272009 
-2.695647696811391 0:-0.832 1:1.0189061368905978E-16 2:0.2003342066272009 
0.36128736671162354 0:0.858 1:0.0 2:0.04350380187751395 
0.00696327933237283 0:0.8474365962306283 1:0.1342207710045181 2:0.04350380187751395 
0.058647843991568145 0:0.8160064909812418 1:0.26513658117370487 2:0.04350380187751395 
0.24547368882932352 0:0.7644835977536196 1:0.3895238487765311 2:0.04350380187751395 
0.3291949313999611 0:0.6941365811737049 1:0.504319746466942 2:0.04350380187751395 
0.26012814837772125 0:0.6066976182580578 1:0.6066976182580577 2:0.04350380187751395 
0.14956958873409182 0:0.504319746466942 1:0.6941365811737049 2:0.04350380187751395 
0.09407392720288658 0:0.38952384877653123 1:0.7644835977536195 2:0.04350380187751395 
0.1719508589013971 0:0.2651365811737049 1:0.8160064909812418 2:0.04350380187751395 
0.3481891044536345 0:0.13422077100451815 1:0.8474365962306283 2:0.04350380187751395 
0.5647010997773276 0:5.2537347683421453E-17 1:0.858 2:0.04350380187751395 
0.339497367176349 0:-0.13422077100451804 1:0.8474365962306283 2:0.04350380187751395 
0.18190912583684493 0:-0.2651365811737048 1:0.8160064909812419 2:0.04350380187751395 
0.15958522632639055 0:-0.3895238487765311 1:0.7644835977536196 2:0.04350380187751395 
0.17421464651581114 0:-0.5043197464669419 1:0.6941365811737049 2:0.04350380187751395 
0.26435981035460826 0:-0.6066976182580577 1:0.6066976182580578 2:0.04350380187751395 
0.4129177622379052 0:-0.6941365811737049 1:0.5043197464669421 2:0.04350380187751395 
0.23806730133853798 0:-0.7644835977536195 1:0.38952384877653123 2:0.04350380187751395 
0.0496451859482085 0:-0.8160064909812418 1:0.265136581173705 2:0.04350380187751395 
0.0018244001254124056 0:-0.8474365962306282 1:0.13422077100451818 2:0.04350380187751395 
0.42539923298232696 0:-0.858 1:1.0507469536684291E-16 2:0.04350380187751395 
-1.0898894527678862 0:0.884 1:0.0 2:0.5277242885617275 
-1.9271614481762132 0:-0.884 1:1.0825877704462602E-16 2:0.5277242885617275 
0.13155961193323995 0:0.91 1:0.0 2:0.9051392051267433 
-0.009639709612340298 0:0.8108159370114147 1:0.41313135476298757 2:0.9051392051267433 
-0.05186356247669121 0:0.7362054648812022 1:0.5348845795861505 2:0.9051392051267433 
-0.2292917143775281 0:0.6434671708797582 1:0.6434671708797581 2:0.9051392051267433 
-0.448435204336894 0:0.5348845795861505 1:0.7362054648812022 2:0.9051392051267433 
-0.5628326394103059 0:0.4131313547629877 1:0.8108159370114146 2:0.9051392051267433 
-0.25307852823191157 0:0.2812054648812022 1:0.8654614298285896 2:0.9051392051267433 
-0.3645064525621965 0:0.14235536318661013 1:0.8987963899415753 2:0.9051392051267433 
-0.3718835059042559 0:5.572142936120457E-17 1:0.91 2:0.9051392051267433 
-0.3035057728162155 0:-0.14235536318661005 1:0.8987963899415753 2:0.9051392051267433 
-0.31305475345965494 0:-0.28120546488120207 1:0.8654614298285898 2:0.9051392051267433 
-0.3305660569687593 0:-0.41313135476298757 1:0.8108159370114147 2:0.9051392051267433 
-0.361019517635243 0:-0.5348845795861504 1:0.7362054648812022 2:0.9051392051267433 
-0.13006062508453026 0:-0.6434671708797581 1:0.6434671708797582 2:0.9051392051267433 
-0.03609022062729889 0:-0.7362054648812021 1:0.5348845795861507 2:0.9051392051267433 
0.002578597017788874 0:-0.8987963899415752 1:0.14235536318661018 2:0.9051392051267433 
-0.42943981701338424 0:-0.91 1:1.1144285872240914E-16 2:0.9051392051267433 
4.8068744188291 0:0.9359999999999999 1:0.0 2:0.7052471418618868 
0.004825883746688027 0:0.924476286797049 1:0.1464226592776561 2:0.7052471418618868 
0.04399107533951236 0:0.5501669961457548 1:0.7572399067349509 2:0.7052471418618868 
0.1400769238016343 0:0.4249351077562159 1:0.8339821066403122 2:0.7052471418618868 
0.0036506398650195697 0:0.2892399067349508 1:0.8901888992522636 2:0.7052471418618868 
8.224883499325249E-4 0:-0.2892399067349507 1:0.8901888992522637 2:0.7052471418618868 
0.07920543992671018 0:-0.4249351077562158 1:0.8339821066403122 2:0.7052471418618868 
0.03684190280325507 0:-0.5501669961457548 1:0.7572399067349509 2:0.7052471418618868 
8.366716842429618E-4 0:-0.6618519471906084 1:0.6618519471906085 2:0.7052471418618868 
0.007195924935391012 0:-0.9244762867970489 1:0.14642265927765621 2:0.7052471418618868 
4.9911603141794565 0:-0.9359999999999999 1:1.1462694040019225E-16 2:0.7052471418618868 
-10.039538503437255 0:0.962 1:0.0 2:0.46245164628309593 
-0.006692145740976657 0:0.9501561836525225 1:0.15048995536870208 2:0.46245164628309593 
-0.001617038544081189 0:0.29727434858869944 1:0.9149163686759376 2:0.46245164628309593 
-8.216312534064945E-4 0:0.15048995536870213 1:0.9501561836525225 2:0.46245164628309593 
-0.01360548581280121 0:5.890551103898768E-17 1:0.962 2:0.46245164628309593 
-0.002982625492518072 0:-0.15048995536870202 1:0.9501561836525225 2:0.46245164628309593 
-11.169471386375253 0:-0.962 1:1.1781102207797536E-16 2:0.46245164628309593 
-16.708764926745 0:0.988 1:0.0 2:0.21240385805036105 
8.088002530096607E-4 0:0.8803144458981075 1:0.4485426137426721 2:0.21240385805036105 
0.0380119616627953 0:0.7993087904424481 1:0.5807318292649635 2:0.21240385805036105 
0.30301373418021743 0:0.698621499812309 1:0.6986214998123088 2:0.21240385805036105 
0.47983332123932526 0:0.5807318292649635 1:0.7993087904424481 2:0.21240385805036105 
0.23283351766853636 0:-0.5807318292649634 1:0.7993087904424481 2:0.21240385805036105 
0.2376504248082978 0:-0.6986214998123088 1:0.698621499812309 2:0.21240385805036105 
0.025485493134849768 0:-0.799308790442448 1:0.5807318292649636 2:0.21240385805036105 
9.573555197753381E-4 0:-0.8803144458981074 1:0.44854261374267224 2:0.21240385805036105 
-16.154073064111337 0:-0.988 1:1.209951037557585E-16 2:0.21240385805036105 
0.07789733067341431 0:1.014 1:0.0 2:0.028399754355570156 
0.04212104411867943 0:1.0015159773634696 1:0.1586245475507941 2:0.028399754355570156 
0.002053308989341891 0:0.9643713075232856 1:0.31334323229619665 2:0.028399754355570156 
0.007796277803640942 0:0.903480615527005 1:0.46034636673590035 2:0.028399754355570156 
0.02025400897165102 0:0.7170062761231593 1:0.7170062761231591 2:0.028399754355570156 
0.1520122818666333 0:0.5960142458245677 1:0.8203432322961967 2:0.028399754355570156 
0.23171803186707587 0:0.46034636673590046 1:0.9034806155270049 2:0.028399754355570156 
0.14397430276820072 0:0.3133432322961967 1:0.9643713075232856 2:0.028399754355570156 
0.29661576326617406 0:0.15862454755079416 1:1.0015159773634696 2:0.028399754355570156 
0.5314862787379934 0:6.20895927167708E-17 1:1.014 2:0.028399754355570156 
0.37326620888354156 0:-0.15862454755079405 1:1.0015159773634696 2:0.028399754355570156 
0.1617987271464647 0:-0.3133432322961966 1:0.9643713075232857 2:0.028399754355570156 
0.1609754950377513 0:-0.46034636673590035 1:0.903480615527005 2:0.028399754355570156 
0.28422513264536764 0:-0.5960142458245676 1:0.8203432322961967 2:0.028399754355570156 
0.044115334944160804 0:-0.7170062761231591 1:0.7170062761231593 2:0.028399754355570156 
0.004950520367271023 0:-0.8203432322961965 1:0.5960142458245679 2:0.028399754355570156 
0.006795578478398134 0:-0.9034806155270049 1:0.46034636673590046 2:0.028399754355570156 
0.007933905105938461 0:-0.9643713075232856 1:0.31334323229619676 2:0.028399754355570156 
0.027323151449287965 0:-1.0015159773634696 1:0.1586245475507942 2:0.028399754355570156 
0.10887619931991677 0:-1.014 1:1.241791854335416E-16 2:0.028399754355570156 
37.83048940436205 0:1.0399999999999998 1:0.0 2:8.272088570610064E-4 
35.72204399445156 0:-1.0399999999999998 1:1.2736326711132472E-16 2:8.272088570610064E-4 
-100.0 0:1.066 1:0.0 2:0.010225126595598509 
-100.0 0:-1.066 1:1.3054734878910788E-16 2:0.010225126595598509 
9.093771122122616 0:1.092 1:0.0 2:0.028843021244113035 
0.0013342704433386599 0:-1.0785556679298904 1:0.17082643582393223 2:0.028843021244113035 
7.34342845112658 0:-1.092 1:1.3373143046689097E-16 2:0.028843021244113035 
16.308762401784676 0:1.118 1:0.0 2:0.02925423983064266 
0.013540872930323003 0:1.104235564785364 1:0.17489373191497815 2:0.02925423983064266 
12.781539377930393 0:-1.118 1:1.369155121446741E-16 2:0.02925423983064266 
2.6223613198925215 0:1.1440000000000001 1:0.0 2:0.002497820929310585 
0.10118958733267469 0:-1.1440000000000001 1:1.400995938224572E-16 2:0.002497820929310585 
-37.89982447854223 0:1.17 1:0.0 2:0.009768085405481458 
-0.025736142776759785 0:1.1555953584963112 1:0.18302832409707012 2:0.009768085405481458 
-0.06670820764120074 0:1.1127361240653297 1:0.3615498834186885 2:0.009768085405481458 
-0.3104931719855845 0:1.0424776333003904 1:0.5311688846952697 2:0.009768085405481458 
-0.6907578764730112 0:0.9465498834186885 1:0.6877087451821936 2:0.009768085405481458 
-0.9044610039734773 0:0.8273149339882606 1:0.8273149339882605 2:0.009768085405481458 
-1.0925489747956931 0:0.6877087451821936 1:0.9465498834186885 2:0.009768085405481458 
-0.8410617559989121 0:0.5311688846952699 1:1.0424776333003904 2:0.009768085405481458 
-0.443190798441201 0:0.36154988341868854 1:1.1127361240653297 2:0.009768085405481458 
-0.8576055136935118 0:0.18302832409707018 1:1.1555953584963112 2:0.009768085405481458 
-1.1409991158720982 0:7.164183775012016E-17 1:1.17 2:0.009768085405481458 
-0.8089480331336604 0:-0.18302832409707004 1:1.1555953584963112 2:0.009768085405481458 
-0.520934857751979 0:-0.3615498834186884 1:1.11273612406533 2:0.009768085405481458 
-0.9135280934316062 0:-0.5311688846952697 1:1.0424776333003904 2:0.009768085405481458 
-1.1571517817317039 0:-0.6877087451821935 1:0.9465498834186885 2:0.009768085405481458 
-1.0032844578371622 0:-0.8273149339882605 1:0.8273149339882606 2:0.009768085405481458 
-0.6441489879215224 0:-0.9465498834186884 1:0.6877087451821937 2:0.009768085405481458 
-0.3028267934777238 0:-1.0424776333003904 1:0.5311688846952699 2:0.009768085405481458 
-0.135173436423807 0:-1.1127361240653297 1:0.3615498834186886 2:0.009768085405481458 
-0.01021115991552935 0:-1.1555953584963112 1:0.18302832409707026 2:0.009768085405481458 
-34.846342006377874 0:-1.17 1:1.4328367550024033E-16 2:0.009768085405481458 
1.1058428496466228 0:1.196 1:0.0 2:0.14223375521658088 
0.12327247227589588 0:1.1812752553517847 1:0.1870956201881161 2:0.14223375521658088 
0.029269729404470347 0:1.1374635934890036 1:0.36958432527243706 2:0.14223375521658088 
0.0522382618887941 0:1.065643802929288 1:0.5429726376884979 2:0.14223375521658088 
0.18415111779285953 0:0.9675843252724372 1:0.7029911617417979 2:0.14223375521658088 
1.0507082489565127 0:0.8456997102991108 1:0.8456997102991107 2:0.14223375521658088 
1.0764744339764927 0:0.7029911617417979 1:0.9675843252724372 2:0.14223375521658088 
0.3262168198908183 0:0.542972637688498 1:1.065643802929288 2:0.14223375521658088 
0.27613336707146396 0:0.3695843252724371 1:1.1374635934890036 2:0.14223375521658088 
0.5054443371257213 0:0.18709562018811618 1:1.1812752553517847 2:0.14223375521658088 
1.0061132853174828 0:7.323387858901173E-17 1:1.196 2:0.14223375521658088 
0.5291307855464554 0:-0.18709562018811607 1:1.1812752553517847 2:0.14223375521658088 
0.26970815751394656 0:-0.369584325272437 1:1.1374635934890038 2:0.14223375521658088 
0.38772857338442585 0:-0.5429726376884979 1:1.065643802929288 2:0.14223375521658088 
1.2958617414361984 0:-0.7029911617417978 1:0.9675843252724372 2:0.14223375521658088 
1.008804642162123 0:-0.8456997102991107 1:0.8456997102991108 2:0.14223375521658088 
0.23202858402044468 0:-0.967584325272437 1:0.7029911617417981 2:0.14223375521658088 
0.05174006375514081 0:-1.065643802929288 1:0.542972637688498 2:0.14223375521658088 
0.039029448108699266 0:-1.1374635934890036 1:0.36958432527243723 2:0.14223375521658088 
0.16635057003416312 0:-1.1812752553517847 1:0.18709562018811624 2:0.14223375521658088 
0.9355308337193604 0:-1.196 1:1.4646775717802346E-16 2:0.14223375521658088 
-3.047755186865345 0:1.222 1:0.0 2:0.39006228606282567 
-2.361719299366726 0:-1.222 1:1.4965183885580655E-16 2:0.39006228606282567 
-29.717982207811684 0:1.248 1:0.0 2:0.8177933377580234 
-0.13565761041851745 0:1.2326350490627318 1:0.19523021237020813 2:0.8177933377580234 
-0.022465036015780405 0:1.1869185323363516 1:0.3856532089799343 2:0.8177933377580234 
-0.06527276890537072 0:1.111976142187083 1:0.5665801436749544 2:0.8177933377580234 
-0.42191369015018826 0:1.0096532089799344 1:0.7335559948610065 2:0.8177933377580234 
-1.3580520411858827 0:0.8824692629208114 1:0.8824692629208112 2:0.8177933377580234 
-1.4532669943246843 0:0.7335559948610065 1:1.0096532089799344 2:0.8177933377580234 
-0.5034703738899021 0:0.5665801436749545 1:1.111976142187083 2:0.8177933377580234 
-0.3794962969726095 0:0.3856532089799344 1:1.1869185323363516 2:0.8177933377580234 
-0.6905018808213593 0:0.19523021237020818 1:1.2326350490627318 2:0.8177933377580234 
-1.3461876970693378 0:7.641796026679484E-17 1:1.248 2:0.8177933377580234 
-0.7013854351221986 0:-0.19523021237020804 1:1.2326350490627318 2:0.8177933377580234 
-0.4250679553113205 0:-0.38565320897993427 1:1.1869185323363518 2:0.8177933377580234 
-0.5957286753584683 0:-0.5665801436749544 1:1.111976142187083 2:0.8177933377580234 
-1.455866691223341 0:-0.7335559948610063 1:1.0096532089799344 2:0.8177933377580234 
-1.357362667720439 0:-0.8824692629208112 1:0.8824692629208114 2:0.8177933377580234 
-0.4904047908527866 0:-1.0096532089799342 1:0.7335559948610066 2:0.8177933377580234 
-0.13266209160189957 0:-1.111976142187083 1:0.5665801436749545 2:0.8177933377580234 
-0.01995698065172287 0:-1.1869185323363516 1:0.3856532089799345 2:0.8177933377580234 
-0.15090674833133935 0:-1.2326350490627316 1:0.19523021237020827 2:0.8177933377580234 
-26.607723825836718 0:-1.248 1:1.5283592053358969E-16 2:0.8177933377580234 
0.8304093803090871 0:1.274 1:0.0 2:0.9269348873507335 
0.015002509278287854 0:1.2583149459182055 1:0.1992975084612541 2:0.9269348873507335 
0.1300449297236237 0:1.2116460017600255 1:0.393687650833683 2:0.9269348873507335 
0.28417413204727027 0:1.1351423118159807 1:0.5783838966681826 2:0.9269348873507335 
0.5242332180459673 0:1.0306876508336829 1:0.7488384114206107 2:0.9269348873507335 
0.9869829765327607 0:0.9008540392316616 1:0.9008540392316614 2:0.9269348873507335 
1.3285672542109634 0:0.7488384114206107 1:1.0306876508336829 2:0.9269348873507335 
0.7196198688878703 0:0.5783838966681827 1:1.1351423118159807 2:0.9269348873507335 
0.40824973691275596 0:0.39368765083368307 1:1.2116460017600255 2:0.9269348873507335 
0.6756413482908654 0:0.19929750846125419 1:1.2583149459182055 2:0.9269348873507335 
1.188640426865443 0:7.80100011056864E-17 1:1.274 2:0.9269348873507335 
0.5919783025622503 0:-0.19929750846125405 1:1.2583149459182055 2:0.9269348873507335 
0.5295920594942215 0:-0.3936876508336829 1:1.2116460017600257 2:0.9269348873507335 
0.771221900264828 0:-0.5783838966681826 1:1.1351423118159807 2:0.9269348873507335 
1.193008650202087 0:-0.7488384114206106 1:1.0306876508336829 2:0.9269348873507335 
1.0573241961579012 0:-0.9008540392316614 1:0.9008540392316616 2:0.9269348873507335 
0.560535461063472 0:-1.0306876508336829 1:0.7488384114206109 2:0.9269348873507335 
0.3406024830037588 0:-1.1351423118159807 1:0.5783838966681827 2:0.9269348873507335 
0.11373533402891621 0:-1.2116460017600255 1:0.3936876508336831 2:0.9269348873507335 
0.054650925163393406 0:-1.2583149459182053 1:0.19929750846125427 2:0.9269348873507335 
1.0076239392313453 0:-1.274 1:1.560200022113728E-16 2:0.9269348873507335 
0.8282926728580966 0:1.3 1:0.0 2:0.6788517472059495 
-0.030845991587911938 0:0.7641208279802151 1:1.0517220926874318 2:0.6788517472059495 
-0.00688460478464781 0:-0.9192388155425116 1:0.9192388155425119 2:0.6788517472059495 
1.238308400902653 0:-1.3 1:1.592040838891559E-16 2:0.6788517472059495 
