svm_type nu_svr
kernel_type rbf
gamma 0.5
nr_class 2
total_sv 11
rho -2.7649855451881287
SV
-10.0 0:0.20000000298023224 1:0.0 
-10.0 0:0.06180339306592941 1:0.19021131098270416 
-9.180201535366988 0:-0.16180340945720673 1:0.11755704134702682 
-2.5 0:-0.16180339455604553 1:-0.11755707114934921 
-0.8197984646330113 0:0.0618034265935421 1:-0.19021129608154297 
3.0164652288798353 0:0.5 1:0.0 
3.1635302427084957 0:0.3535533845424652 1:0.3535533845424652 
10.0 0:-2.1855694143368964E-8 1:0.5 
6.836469757291504 0:-0.5 1:-4.371138828673793E-8 
2.5 0:-0.3535534143447876 1:-0.3535533547401428 
6.983534771120165 0:0.35355332493782043 1:-0.35355344414711 
